A0A067DE75 3.212787 2.413121 1.981646 3.009602 3.412835 3.211480 2.535764 1.935622 2.716199 1.482704 2.474573 1.647972 1.529513 1.530036 2.205228 2.135146 3.226908 2.497062 1.488980 2.570544 1.363460 1.733744 2.025839 1.325020 1.685890 2.142730 1.548602 1.247093 1.583382 1.270105 1.797027 3.109495 1.901365 1.284487 1.938498 1.310376 1.896397 2.321334 1.741589 1.710471 1.171258 0.885962 0.984547 0.944799 0.996576 1.650849 1.847497 1.621822 0.985331 4.361295 1.538665 0.663948 0.962058 1.694781 1.862925 1.728253 1.547295 0.649566 0.919172 0.755996 0.875763 4.103194 1.539711 1.665231 1.443218 1.845405 0.903482 5.093756 1.549910 0.647474 0.601188 0.941923 0.624462 0.889100 5.229997 1.478259 3.075761 1.585735 3.600069 2.108735 0.841245 0.869226 3.315295 1.289456 3.394530 1.832068 2.359513 0.959181 0.622108 0.767241 0.614002 1.048091 0.677285 0.929894 4.280230 1.229572 5.229997 1.273504 3.168594 2.137238 2.234516 0.836538 4.368094 1.094115 5.229997 1.832591 2.140376 0.791822 0.921003 0.684607 1.088362 0.722786 1.929869 0.987423 0.871056 5.229997 1.137786 4.036773 0.844383 3.820251 2.318196 2.233209 0.771948 5.229997 3.623081 4.614688 3.065563 2.692403 2.682989 3.271625 1.259645 2.539948 1.029525 0.822417 1.400070 0.774563 1.068488 3.551953 0.787376 3.031829 2.241838 3.386423 0.842291 3.857907 1.122880 3.002803 0.838369 2.797787 1.086793 3.954401 2.986328 2.257790 3.831496 0.784238 3.466704 1.356661 3.904193 1.030832 3.820774 0.797575 3.110018 1.899012 4.627763 0.859550 4.355803 1.382027 2.161296 0.914988 2.419135 3.203373 1.820824 2.097752 3.426694 0.827124 5.229997 1.882799 5.229997 1.094377 2.408937 0.903221 5.229997 1.994198 5.229997 1.104314 5.229997 1.698442 2.318196 1.058813 2.016948 3.164671 2.023747 5.229997 1.989491 3.796978 1.423344 5.229997 2.148221 2.817400 2.094875 2.774775 2.573682 2.199475 3.582810 2.969069 2.041006 2.378341 2.461760 2.046498 3.101388 1.955234 2.955210 1.900842 3.458597 2.472220 1.940329 2.376772 2.815046 3.782334 2.987897 3.966953 2.755424 1.889075 3.446307 2.867869 1.869463 1.594626 1.879923 5.229997 3.458597 1.573445 2.494709 3.163102 1.923593 3.362627 3.927989 1.682229 1.938760 1.549387 4.666988 1.942159 4.398428 1.922285 4.493614 3.176962 1.564031 2.630689 1.733221 3.428525 1.968309 1.751526 3.275547 5.229997 1.754141 2.415213 2.332056 2.339116 1.812717 1.840959 2.479803 2.357160 0.000000 -0.655607 -0.655607 0.000000 0.000000 0.000000 -0.655607 -0.655607 0.000000 0.000000 0.000000 0.000000 0.000000 -0.655607 -3.371694 -0.655607 0.000000 0.000000 0.000000 0.000000 0.000000 0.000000 0.000000 0.000000 -0.655607 -3.371694 -2.107309 0.000000 0.000000 0.000000 0.000000 0.000000 0.000000 0.000000 0.000000 0.000000 -0.655607 0.000000 0.000000 0.000000 0.000000 0.000000 0.000000 0.000000 0.000000 0.000000 0.000000 0.000000 -2.107309 0.000000 0.000000 0.000000 0.000000 0.000000 0.000000 0.000000 0.000000 0.000000 0.000000 0.000000 0.000000 -2.107309 0.000000 0.000000 0.000000 0.000000 -2.107309 0.000000 0.000000 0.000000 0.000000 0.000000 0.000000 0.000000 0.000000 0.000000 0.000000 0.000000 0.000000 0.000000 0.000000 -2.107309 0.000000 0.000000 0.000000 0.000000 0.000000 -2.107309 0.000000 0.000000 0.000000 0.000000 0.000000 0.000000 -0.655607 0.000000 0.000000 0.000000 0.000000 0.000000 0.000000 -3.371694 -0.655607 0.000000 0.000000 0.000000 -3.156280 -3.371694 0.000000 0.000000 0.000000 0.000000 0.000000 0.000000 -3.371694 0.000000 0.000000 -3.348279 -3.371694 0.000000 1.245653 -3.156280 -3.371694 0.000000 1.358043 0.000000 -0.655607 0.000000 0.000000 0.000000 0.000000 0.000000 -3.371694 -3.371694 0.000000 -3.371694 -3.371694 0.000000 -3.371694 0.000000 -3.156280 -3.371694 -3.371694 0.000000 0.000000 -0.655607 -3.371694 -0.655607 -3.371694 -0.655607 0.000000 0.000000 1.358043 -3.371694 0.000000 0.000000 0.000000 -3.371694 0.000000 -3.371694 0.000000 0.000000 -2.107309 -3.371694 0.000000 0.000000 -0.655607 -3.371694 -0.655607 -3.371694 -0.655607 -0.655607 0.000000 -3.371694 0.000000 0.000000 0.000000 -3.371694 -0.655607 -3.371694 0.000000 0.000000 0.000000 -3.371694 0.000000 0.000000 -0.655607 -3.371694 -0.655607 0.000000 -0.655607 0.000000 0.000000 0.000000 -3.371694 0.000000 0.000000 0.000000 0.000000 -0.655607 1.358043 -0.655607 -0.655607 -3.156280 0.000000 -0.468291 0.000000 -0.655607 -0.655607 0.000000 1.245653 -0.655607 0.000000 -0.468291 0.000000 -0.655607 -2.107309 -0.655607 -0.655607 -0.655607 -3.156280 0.000000 1.245653 0.000000 -0.655607 0.000000 -0.655607 0.000000 0.000000 0.000000 -0.655607 -0.655607 -0.655607 -0.655607 0.000000 0.000000 -0.655607 0.000000 -0.655607 -0.655607 0.000000 -0.655607 0.000000 0.000000 0.000000 1.245653 0.000000 -0.655607 0.000000 0.000000 0.000000 0.000000 0.000000 0.000000 -2.107309 -2.107309 0.000000 0.000000 0.000000 0.000000
A0A067DT54 2.165480 2.976391 2.933505 2.033161 2.128609 2.038653 2.260143 3.077330 3.366026 1.948174 2.260405 1.563769 2.224318 2.797264 3.191083 2.135669 3.298298 1.902411 1.579721 3.412835 1.454462 1.938760 2.141161 1.409746 3.515866 2.453653 1.769308 1.289456 1.707333 1.434588 1.609270 1.908949 1.893782 1.433281 1.521668 1.769570 0.967811 1.893259 1.737144 2.009888 0.978271 1.019849 1.168381 1.306976 1.138832 1.572399 1.338356 1.698965 1.116343 1.681183 1.828930 0.786592 0.806466 1.671507 1.260429 1.589396 1.171781 0.932509 1.126541 1.932745 1.093331 0.929894 2.107689 1.697919 1.105883 2.612122 1.110067 1.612931 1.236894 0.757827 0.793652 0.839153 1.008082 1.233495 1.764340 1.102222 2.950764 1.208652 0.940615 2.207843 1.959941 1.169950 3.046473 1.116081 3.043597 1.301746 2.261189 1.810102 0.822156 0.849090 0.996837 1.245262 1.939283 2.522689 2.576035 1.183287 4.431377 1.253630 1.207868 2.809816 2.060096 2.045452 2.320288 1.158706 1.976677 1.354308 3.718267 2.250206 2.313228 1.271151 2.223272 3.158395 3.942633 2.648994 2.439794 1.817163 1.225650 3.196313 1.233495 1.579459 2.312182 2.603493 2.278971 2.254913 3.428786 1.529251 5.229997 2.815831 2.963055 2.991820 3.439508 2.974038 4.425101 5.229997 1.515653 3.148458 1.303315 3.151858 4.821273 1.525852 2.254129 2.374419 3.251751 1.674907 1.895351 3.108972 4.761651 3.858692 2.998096 2.578127 3.106095 2.561130 2.179340 2.733981 1.514084 1.837037 2.007796 1.981384 2.033946 2.662069 1.561939 2.387232 2.116841 2.675667 2.646640 1.915486 3.803777 3.719051 2.904740 3.526064 2.429595 3.399237 1.966479 2.770853 1.622345 2.293354 2.629643 2.007796 2.390632 2.714892 3.381716 3.113940 2.182216 2.791250 5.229997 1.885675 2.850087 3.652369 3.015878 5.229997 3.116555 5.229997 1.995505 3.780242 3.266133 5.229997 2.002304 3.076284 3.011171 2.858455 3.329155 3.150027 2.925399 2.249422 2.093829 1.802257 2.192938 3.555352 2.852179 2.512491 2.479019 1.788398 4.403658 1.758325 1.978246 2.326826 5.229997 4.018207 2.581527 3.111325 2.170187 1.972493 2.483726 2.848256 1.662355 1.717793 1.807226 1.703149 2.439794 1.765647 4.420132 4.125945 2.230855 5.229997 2.252821 2.429595 1.900058 1.602210 2.809032 2.718814 1.815332 2.832566 4.440529 3.023461 1.694781 2.515629 2.357683 2.961747 2.715676 1.723807 2.823937 1.932484 2.818184 3.012740 2.391678 2.509353 2.388801 2.367620 3.285484 2.556946 0.000000 0.000000 0.000000 0.000000 -0.655607 0.000000 -0.655607 0.000000 0.000000 0.000000 -0.655607 0.000000 0.000000 0.000000 0.000000 -0.655607 0.000000 -2.107309 0.000000 0.000000 0.000000 -2.107309 0.000000 0.000000 -0.655607 -3.348279 0.000000 0.000000 0.000000 0.000000 -0.655607 -2.107309 0.000000 2.107309 -0.655607 0.000000 0.000000 -3.156280 -0.655607 1.245653 0.000000 0.000000 0.000000 0.000000 0.000000 -0.655607 -3.156280 0.000000 -2.107309 0.000000 0.000000 0.000000 0.000000 -0.655607 -2.107309 -0.655607 -3.156280 0.000000 0.000000 0.000000 0.000000 0.000000 0.000000 -0.655607 -3.156280 0.000000 -2.107309 0.000000 -3.156280 0.000000 0.000000 0.000000 0.000000 0.000000 -0.655607 -3.156280 0.000000 1.245653 0.000000 0.000000 2.107309 0.000000 1.128581 1.245653 0.000000 1.245653 1.245653 1.245653 0.000000 0.000000 0.000000 0.000000 0.000000 0.000000 0.000000 1.245653 0.000000 1.245653 0.000000 0.000000 0.000000 0.000000 0.000000 1.245653 -0.655607 1.245653 1.245653 1.245653 0.000000 0.000000 0.000000 0.000000 0.000000 0.000000 0.000000 -0.655607 1.245653 0.000000 1.245653 0.000000 0.000000 1.245653 0.000000 -0.655607 1.245653 -0.655607 0.000000 -2.861257 -0.655607 -0.655607 0.000000 0.000000 0.000000 0.000000 1.245653 -3.371694 1.245653 0.000000 -1.685847 -0.655607 0.000000 0.000000 1.245653 -0.655607 1.245653 0.000000 0.000000 0.000000 0.000000 0.000000 0.000000 0.000000 0.000000 0.000000 -0.655607 0.000000 -0.655607 0.000000 0.000000 0.000000 -0.655607 1.245653 0.000000 0.000000 -0.655607 0.000000 -2.107309 0.000000 0.000000 0.000000 0.000000 0.000000 0.000000 0.000000 -0.655607 0.000000 0.000000 0.000000 0.000000 0.000000 -1.685847 1.245653 0.000000 0.000000 0.000000 0.000000 0.000000 0.000000 0.000000 0.000000 0.000000 1.128581 0.000000 0.000000 0.000000 0.000000 0.000000 1.128581 0.000000 0.000000 -2.107309 1.245653 0.000000 1.128581 0.000000 -2.861257 0.000000 0.000000 0.000000 0.000000 1.128581 -2.861257 0.000000 -2.861257 0.000000 -0.655607 0.000000 0.000000 0.000000 0.000000 1.128581 0.000000 1.128581 0.000000 -2.861257 1.245653 -2.861257 1.245653 -2.861257 1.245653 0.000000 0.000000 -0.655607 1.128581 1.128581 1.245653 -2.861257 1.245653 -0.655607 -0.655607 1.245653 -0.655607 -0.655607 0.000000 1.245653 -1.685847 -3.371694 -0.655607 0.000000 1.245653 -0.655607 -3.156280 0.000000 1.245653 -2.107309 2.107309 0.000000 0.000000 0.000000 0.000000
A0A067E1K2 3.113940 2.824722 2.532626 2.840673 2.094091 1.979031 3.225601 2.997834 2.096706 1.458385 2.880944 1.340187 2.126778 1.963079 2.354545 2.559561 3.084652 1.844097 1.299393 2.829428 1.273504 1.333126 2.155543 1.265136 2.510399 2.429334 1.643788 1.035801 1.384119 1.030048 1.855603 1.849066 1.883061 1.072672 1.851419 1.635420 2.867084 1.607178 1.817163 1.654510 0.999452 0.737168 0.933032 0.725401 0.889623 1.842528 2.213596 0.995007 0.900867 2.407891 1.628098 0.712587 0.941661 2.196599 2.350622 2.400830 1.109021 0.656365 0.885177 0.680423 0.848044 2.403707 1.960464 2.354283 0.948198 0.996053 0.910020 2.736073 1.236633 0.855628 0.670747 0.992392 0.659503 0.892761 3.003064 0.938785 2.904479 0.956043 2.487387 2.053820 0.738476 0.907143 3.040720 0.899037 4.046972 1.094900 1.827100 1.545726 0.895114 1.012527 0.723832 1.243693 0.758350 1.057244 3.025553 0.943230 1.783429 0.960227 3.461997 2.434041 1.245262 2.049897 3.296206 0.950290 3.775273 1.768524 1.775846 1.246047 1.141970 2.137238 1.177534 1.105883 2.554069 4.621487 1.952881 3.887457 1.030048 1.863448 1.025602 4.050110 2.281848 1.910256 2.064018 3.500437 1.929607 3.641647 2.919646 2.692403 2.132531 2.150313 2.458622 3.114202 2.600878 2.144822 1.198977 1.118173 1.002067 2.510399 2.516152 2.588849 2.967500 3.294114 1.090193 3.400021 1.129156 2.386709 2.991558 2.934028 2.641933 2.817661 2.634611 2.867346 3.070270 1.412622 2.633827 2.029500 3.153165 1.202638 2.466728 1.503363 2.932198 3.536263 2.951549 1.347770 2.622059 1.295732 2.458360 3.749908 3.020585 2.604539 2.604016 3.453890 3.819990 1.228003 2.474312 2.058788 3.423295 1.189824 2.924876 1.323451 2.649517 2.691095 3.034967 1.153999 2.768761 1.177272 2.888789 1.816901 3.126754 5.229997 3.324186 2.568452 2.040745 3.972444 1.187471 5.229997 1.097776 3.290714 2.561391 2.809032 1.409223 3.198405 5.229997 2.748102 1.179364 2.664945 1.131771 3.901578 3.310065 1.553832 2.838581 2.690572 1.353262 3.849801 1.149553 3.397668 1.565861 3.885626 2.475619 3.355828 3.304051 1.278473 3.725850 1.533697 2.700509 1.317698 3.602684 1.534743 3.472457 1.274027 3.297775 2.363436 3.967737 2.337547 3.741802 1.456031 3.005418 1.477474 3.049873 2.784189 2.034469 2.915985 4.102148 2.966193 1.709163 2.492878 2.401092 2.695018 2.657885 1.817424 4.043049 2.922261 2.200260 2.547009 2.649778 2.918600 2.382787 2.042837 2.393770 2.009103 0.000000 0.000000 0.000000 0.000000 0.000000 0.000000 2.107309 0.000000 0.000000 0.000000 0.000000 0.000000 0.000000 -0.655607 -3.348279 1.128581 0.000000 -2.107309 2.107309 0.000000 0.000000 0.000000 0.000000 0.000000 1.128581 1.264385 0.000000 2.107309 0.000000 0.000000 -2.107309 -2.107309 0.000000 2.107309 0.000000 0.000000 1.245653 -3.156280 -2.107309 -3.156280 0.000000 0.000000 0.000000 0.000000 0.000000 -2.107309 -2.107309 0.000000 -2.107309 1.245653 -3.156280 0.000000 0.000000 0.000000 -3.156280 -3.371694 -3.156280 0.000000 0.000000 0.000000 -2.107309 0.000000 1.245653 -3.371694 -3.156280 0.000000 -2.107309 1.245653 -3.156280 0.000000 0.000000 0.000000 0.000000 0.000000 0.000000 -3.156280 0.000000 -3.156280 0.000000 0.000000 0.000000 -2.107309 0.000000 -3.156280 0.000000 -3.156280 0.000000 1.245653 0.000000 0.000000 0.000000 0.000000 0.000000 0.000000 0.000000 1.245653 0.000000 1.245653 0.000000 0.000000 0.000000 0.000000 0.000000 1.245653 0.000000 1.245653 0.000000 1.245653 0.000000 0.000000 0.000000 0.000000 0.000000 0.000000 0.000000 0.000000 1.245653 0.000000 1.245653 -2.107309 0.000000 0.000000 1.245653 1.245653 0.000000 0.000000 0.000000 0.000000 0.000000 0.000000 0.000000 0.000000 0.000000 0.000000 1.245653 1.245653 1.245653 0.000000 0.000000 0.000000 0.000000 0.000000 1.245653 -2.107309 1.245653 0.000000 0.000000 0.000000 0.000000 0.000000 0.000000 0.000000 0.000000 1.245653 -1.685847 0.000000 0.000000 1.245653 0.000000 -0.655607 -0.655607 0.000000 0.000000 1.245653 -1.685847 1.245653 0.000000 0.000000 0.000000 0.000000 0.000000 0.000000 0.000000 -0.655607 -1.685847 0.000000 0.000000 -0.655607 0.000000 -0.655607 -0.655607 0.000000 -3.371694 -0.655607 0.421462 -0.655607 0.000000 -0.655607 0.000000 0.000000 0.000000 0.421462 -0.655607 0.000000 -0.655607 -3.371694 -0.655607 -0.655607 0.000000 0.000000 -0.655607 1.245653 -0.655607 0.421462 -0.655607 -3.371694 -0.655607 0.000000 0.421462 -0.655607 0.000000 -2.107309 -0.655607 0.000000 -0.655607 0.000000 -0.655607 0.000000 -1.685847 -0.491705 0.000000 -0.655607 0.000000 -0.655607 -2.107309 -0.655607 0.000000 -0.655607 -1.451701 -0.655607 -0.655607 -1.685847 -0.655607 -0.655607 0.000000 -0.655607 0.000000 -0.655607 -0.655607 -0.655607 0.000000 -0.655607 0.000000 0.000000 -0.655607 0.000000 0.000000 -2.107309 0.000000 0.000000 0.000000 -2.107309 0.000000 0.000000 0.000000 2.107309 0.000000 0.000000 0.000000 0.000000
A0A067ELB0 2.032377 2.141684 2.235301 1.330773 1.676214 1.461000 3.015093 2.302506 1.534220 1.170996 2.260405 1.103006 1.271151 2.702078 1.838867 1.892474 1.249969 1.647188 0.912112 1.615808 0.875240 0.918649 1.933007 1.177011 2.823937 2.152144 1.489242 0.722263 0.879686 0.793652 1.920193 1.576321 1.560370 0.694021 1.696350 0.745275 1.550171 1.661309 2.112919 1.662355 0.784238 0.939046 0.708665 1.570568 0.652442 2.004658 2.314274 1.729822 0.655319 1.574491 1.476690 0.838630 0.766718 1.691120 0.738999 2.144560 1.358492 0.884654 0.672839 0.990561 0.647997 1.546249 1.496825 2.419135 1.371828 1.707856 0.684868 5.229997 1.310376 0.806727 0.832354 0.791299 0.880993 0.703173 2.408152 1.223558 2.855840 0.916034 2.250729 1.657909 1.557232 0.712064 2.206013 1.393794 2.108473 1.335741 1.945820 0.853274 0.841507 0.860335 0.932770 1.054890 1.733483 0.884131 2.043360 1.054367 2.365005 0.750766 2.272957 2.085723 2.173064 1.828669 2.183785 0.752335 2.300153 1.059597 2.123902 0.663425 0.969641 1.070319 0.993961 3.334646 3.580979 5.229997 1.710994 2.212550 0.982193 4.108686 0.625246 2.893496 2.435610 3.849801 0.678854 3.820513 2.045713 2.557469 5.229997 5.229997 5.229997 2.111611 2.346177 2.540210 5.229997 1.678568 1.059859 0.614786 0.658718 2.112919 0.661856 2.487910 1.425959 2.487910 0.612171 2.426457 0.994222 2.107427 0.830001 5.229997 2.104551 4.281276 2.139592 2.397692 2.073694 0.633614 2.234778 1.090716 2.314797 0.690621 2.068464 0.691406 2.378080 1.896920 3.108710 0.643813 2.113965 0.849352 2.159989 0.892761 3.801162 2.162081 3.925113 2.195030 2.745226 0.653488 2.283155 1.774277 2.170449 0.696374 2.499939 0.740306 2.370235 1.961249 4.079136 0.675977 2.139330 0.999191 3.147412 0.910543 2.733720 3.209388 2.768761 2.258051 1.725376 2.911801 0.727754 2.219349 0.807512 2.494186 2.225102 3.042028 0.841507 3.462520 3.108710 2.307736 2.051205 2.640103 0.848044 2.957563 3.875166 2.017471 2.579696 2.770330 2.334671 5.229997 2.201829 3.837510 2.520597 5.229997 5.229997 5.229997 3.531556 1.930915 3.309542 1.999951 2.668345 3.577057 2.823937 4.789893 3.294114 1.546249 4.381430 5.229997 4.225838 5.229997 3.356874 1.651895 4.024221 1.708902 4.121761 3.108710 1.604040 3.027122 3.912561 3.494423 1.590181 1.882015 1.721715 1.879400 3.158134 1.359799 3.065824 1.414453 1.706287 1.736882 1.817947 1.396671 1.799642 1.732698 2.416259 2.291785 0.000000 1.128581 0.000000 0.000000 0.000000 0.000000 1.128581 0.000000 0.000000 0.000000 0.000000 0.000000 0.000000 0.000000 0.000000 0.000000 0.000000 2.107309 2.107309 -2.107309 2.107309 2.107309 0.000000 0.000000 0.000000 0.000000 2.107309 2.107309 2.107309 2.107309 0.000000 0.000000 0.000000 -2.107309 0.000000 -2.107309 0.000000 0.000000 0.000000 0.000000 2.107309 0.000000 2.107309 0.000000 -2.107309 0.000000 0.000000 0.000000 -2.107309 0.000000 0.000000 0.000000 2.107309 0.000000 -2.107309 0.000000 0.000000 0.000000 -2.107309 0.000000 -2.107309 0.000000 0.000000 0.000000 0.000000 0.000000 -2.107309 0.000000 0.000000 0.000000 0.000000 0.000000 0.000000 -2.107309 0.000000 0.000000 0.000000 -2.107309 0.000000 0.000000 -2.107309 -2.107309 0.000000 0.000000 0.000000 0.000000 2.107309 -2.107309 0.000000 0.000000 0.000000 0.000000 0.000000 -2.107309 0.000000 0.000000 0.000000 -3.371694 0.000000 0.000000 0.000000 0.000000 0.000000 -3.371694 0.000000 0.000000 0.000000 -3.371694 0.000000 0.000000 0.000000 0.000000 0.749265 0.000000 -3.371694 0.000000 -3.371694 0.000000 -3.371694 0.000000 0.000000 0.000000 -3.371694 0.749265 -0.655607 0.000000 0.000000 0.000000 0.000000 0.000000 0.000000 1.128581 -3.371694 -3.371694 0.000000 -3.371694 -3.371694 -0.655607 -3.371694 0.000000 0.000000 -0.655607 -3.371694 -0.655607 -3.371694 -0.655607 -3.371694 0.000000 -3.371694 -0.655607 1.128581 -2.257162 -0.655607 -3.371694 -0.655607 0.000000 -0.655607 -3.371694 -0.655607 -3.371694 0.000000 0.000000 -0.655607 -3.371694 -0.655607 -3.371694 -0.655607 -3.371694 -0.655607 1.128581 -0.655607 1.128581 -0.655607 -3.371694 -0.655607 1.358043 -0.655607 -3.371694 -0.655607 -3.371694 -0.655607 0.000000 0.000000 -3.371694 -0.655607 -3.371694 0.000000 -3.371694 -0.655607 0.000000 -0.655607 -0.655607 0.000000 0.000000 -3.371694 -0.655607 -3.371694 -0.655607 0.000000 0.000000 -3.371694 0.000000 0.000000 -0.655607 -3.371694 0.000000 -3.371694 -0.655607 -0.655607 0.000000 -0.655607 0.000000 -3.371694 0.000000 -3.371694 0.000000 -2.107309 0.000000 0.000000 0.000000 0.000000 0.000000 0.000000 0.000000 0.000000 0.000000 0.000000 -3.156280 -2.107309 0.000000 0.000000 0.000000 0.000000 0.000000 0.000000 0.000000 -0.655607 0.000000 0.000000 -0.655607 -3.371694 -0.655607 -3.371694 1.245653 0.000000 1.245653 0.000000 -3.371694 0.000000 -3.371694 -0.655607 -3.371694 0.000000 -3.371694 -3.371694 -3.371694 0.000000 0.000000 0.000000 0.000000
A0A067F4I6 2.435087 5.229997 2.161035 1.672815 2.393508 2.273480 2.840411 1.473029 1.837037 1.369998 2.125209 1.330250 1.430404 2.898726 2.534457 2.140638 1.419421 0.962319 1.021941 1.741589 1.041292 1.124188 1.717531 1.039462 2.066110 3.566597 0.603542 0.927540 0.602234 0.726970 2.019563 1.693735 0.698728 0.895899 1.712040 0.912896 2.931152 1.706025 2.124948 1.646665 0.594128 0.557518 0.926756 0.577130 0.897468 2.153451 1.126541 0.717556 0.861904 3.617851 1.102222 0.569285 0.659503 2.119718 0.934862 2.876237 0.889884 0.563009 0.943753 0.617663 0.918388 5.056361 1.951312 2.987897 0.864780 0.950290 0.937739 2.378080 0.876548 0.669178 0.606941 0.925187 0.638583 1.112682 3.222724 0.823463 1.864756 0.962058 2.510399 1.012789 0.837323 2.024009 3.353474 0.844645 2.421227 0.865042 1.975893 1.198192 0.848567 1.032401 0.810650 1.050968 0.912112 1.926992 2.164696 0.842030 2.048851 0.881255 2.212550 2.679328 2.258836 1.067442 1.520622 0.868180 2.158158 0.959966 2.038130 0.833923 1.901365 3.804823 3.454936 4.120192 3.886411 4.097703 1.848281 2.303552 0.921787 1.282134 0.722263 2.130962 2.011718 1.524021 0.869487 1.211267 1.309330 2.282894 3.992841 3.797501 3.481086 3.564505 2.323688 2.138546 4.288075 1.041031 1.069796 0.703958 0.726447 1.459954 0.771686 3.065301 1.714655 1.235325 0.670224 1.291548 0.994484 4.338544 5.067867 5.229997 2.027670 3.380147 1.948174 2.244453 1.378889 0.692975 2.242100 1.727991 1.207345 0.715725 2.540994 1.012789 2.682466 1.692689 1.379673 0.700297 1.705241 1.567430 2.220395 2.051728 4.075998 1.942421 2.095660 2.082323 1.438772 0.789991 2.806678 1.642481 1.493164 0.876809 1.579198 1.847758 2.825506 1.783691 1.375228 2.773206 2.063757 1.515915 2.426457 3.048565 2.041006 2.172802 1.920978 2.532103 1.818209 1.504670 1.890644 1.441387 1.851942 2.428811 1.901365 2.175940 2.267465 2.375988 2.068464 1.761202 1.772446 1.527944 2.121287 2.108996 2.070033 1.719623 1.715962 2.443716 2.345131 2.259097 1.680921 3.570519 2.188754 3.962769 3.745201 3.543585 1.603256 1.636989 1.721977 2.661807 3.837772 1.771400 4.062662 4.525778 1.655033 1.703149 4.732624 4.069199 5.229997 4.735501 1.550171 2.096706 2.631473 1.668108 5.229997 2.545178 3.402636 5.229997 4.284152 1.691381 1.751265 2.222487 2.077878 4.398689 2.286293 2.536549 2.412075 2.876760 2.730843 2.722475 2.203659 2.114226 2.339116 2.243407 2.506738 2.310351 0.000000 0.000000 -0.655607 0.000000 0.000000 0.000000 0.000000 0.000000 -2.107309 2.107309 0.000000 0.000000 0.000000 0.000000 -3.371694 0.000000 0.000000 0.000000 0.000000 0.000000 0.000000 0.000000 0.000000 -2.107309 0.000000 -3.156280 0.000000 0.000000 0.000000 0.000000 0.000000 0.000000 0.000000 0.000000 0.000000 -2.107309 0.000000 -3.156280 0.000000 -3.156280 0.000000 0.000000 0.000000 0.000000 0.000000 0.000000 -3.156280 0.000000 0.000000 0.000000 -3.156280 0.000000 0.000000 0.000000 1.245653 0.000000 1.245653 0.000000 0.000000 0.000000 0.000000 0.000000 1.245653 0.000000 1.245653 0.000000 0.000000 1.128581 1.245653 0.000000 0.000000 0.000000 0.000000 0.000000 0.000000 1.245653 0.000000 1.245653 1.128581 1.245653 0.000000 0.000000 0.749265 1.245653 0.000000 1.245653 0.000000 1.245653 0.000000 0.000000 0.000000 0.000000 0.000000 0.000000 0.000000 1.245653 0.000000 1.245653 0.000000 1.245653 0.000000 0.000000 0.000000 1.245653 0.000000 1.245653 0.000000 0.000000 0.000000 0.000000 0.000000 0.000000 0.000000 0.000000 0.000000 0.000000 1.245653 0.000000 1.245653 0.000000 1.245653 -3.348279 0.000000 0.000000 0.000000 0.000000 0.000000 0.000000 0.000000 0.000000 -2.257162 1.128581 -1.685847 0.000000 1.245653 0.000000 1.245653 0.000000 0.000000 -0.468291 1.245653 0.000000 0.000000 0.000000 1.245653 0.000000 0.000000 1.128581 1.128581 0.000000 1.128581 -2.257162 0.000000 0.000000 0.000000 1.245653 0.000000 1.245653 0.000000 0.000000 -0.468291 1.245653 0.000000 0.000000 0.000000 1.245653 -0.655607 0.000000 0.000000 1.128581 -2.257162 1.128581 0.000000 0.000000 0.000000 1.245653 0.000000 0.000000 0.000000 0.000000 -1.685847 0.000000 0.000000 0.000000 0.000000 0.000000 -0.655607 0.000000 -2.257162 1.128581 -2.257162 -1.685847 0.000000 0.000000 0.000000 0.000000 0.000000 0.421462 0.000000 -0.655607 0.000000 -0.655607 1.128581 -2.107309 0.000000 0.000000 2.107309 -2.257162 1.128581 0.000000 -1.685847 -0.655607 0.000000 -1.685847 -1.451701 0.000000 -2.107309 0.000000 1.128581 1.128581 -1.685847 -1.451701 -1.685847 0.000000 0.000000 0.000000 0.000000 0.000000 -1.685847 0.000000 -2.107309 -0.655607 0.000000 -0.655607 -1.685847 0.000000 0.000000 0.000000 -0.655607 0.000000 -0.655607 0.000000 -0.655607 -1.685847 0.000000 -1.685847 -2.107309 0.000000 0.000000 0.000000 0.000000 0.000000 0.000000 0.000000 -2.107309 -2.107309 0.000000 0.000000 0.000000 0.000000
A0A067GFT7 2.279756 5.229997 1.774015 2.112919 2.196076 3.230831 2.027408 2.277141 2.123117 1.543895 1.929607 1.337833 1.823439 1.676999 2.219872 2.124425 1.279257 1.615023 1.180672 1.777676 1.250492 1.627837 1.652156 1.220943 1.932222 4.224269 1.684059 0.906882 1.615023 0.958658 1.992367 1.312729 1.639343 0.852751 1.854034 0.857981 1.923070 1.755710 3.124400 1.724853 0.959181 0.957089 0.867395 1.546249 0.803851 2.922261 1.726422 1.540757 0.762534 1.993675 1.695304 0.887269 0.869749 2.479542 0.809081 1.876523 1.138309 0.924664 0.857458 1.416022 0.766456 1.939806 1.860310 2.008319 1.057505 1.554617 0.768025 1.889075 1.127849 0.862688 0.918911 0.878901 1.567169 0.867657 1.973801 1.009912 1.768785 0.878117 1.717270 2.032115 1.576844 0.817449 4.301411 1.015142 1.763294 1.093592 1.712824 0.882301 0.968072 0.923879 2.047805 1.020372 2.785497 1.767478 1.761202 1.025341 1.687197 1.100130 1.671246 3.087006 3.907069 2.082846 2.280540 1.010174 1.668108 1.173611 1.762771 1.066135 1.129679 3.628834 1.054629 3.116817 3.391915 5.137949 2.540733 1.959157 1.069273 2.635134 0.861119 1.704195 2.246807 4.149480 1.251277 1.885675 2.725090 1.769570 4.397382 4.157325 3.654199 3.697870 2.550147 2.725090 5.229997 2.683773 1.228526 0.901652 0.826863 5.125136 1.239248 3.012478 2.050159 1.430927 0.806466 1.909210 0.983762 4.825457 5.229997 5.229997 2.700248 4.819181 2.686127 2.653178 1.507024 0.904790 2.038653 2.033161 1.589919 0.834969 2.540994 1.736098 2.902910 1.947128 1.459954 0.872887 1.683798 1.924639 2.273741 2.052251 4.134313 2.837273 3.429309 3.363150 1.594626 1.674907 2.631473 1.762248 1.609532 2.222487 2.153190 1.897181 2.594340 2.099321 1.589658 2.309828 2.090168 1.818732 2.418351 2.132793 3.445784 1.958895 2.115272 2.866561 1.893782 2.487125 2.285770 2.116841 2.164173 2.408675 2.304075 1.371567 2.178032 2.469082 1.899273 2.715676 2.007534 1.413407 3.147674 3.759061 1.976939 1.999428 2.003350 1.182502 2.088076 2.491571 2.065326 1.200284 2.227717 1.596457 2.290739 1.758848 1.908949 1.958634 1.744989 2.145868 1.203945 2.310613 1.190870 3.734480 1.257814 1.846451 1.629929 3.190821 1.374182 4.258525 1.753357 1.978769 1.228788 4.561342 2.066372 1.297039 3.695516 1.419421 4.045664 1.404777 2.363174 1.845405 2.244715 1.507808 1.507808 3.062163 1.407915 2.226933 1.849850 2.002304 1.892736 2.060880 1.846189 2.001258 2.063495 1.856649 -0.655607 0.000000 -0.655607 0.000000 0.000000 -2.107309 0.000000 0.000000 0.000000 0.000000 0.000000 0.000000 -2.107309 -0.655607 -3.371694 0.000000 0.000000 0.000000 2.107309 0.000000 2.107309 2.107309 0.000000 0.000000 -0.655607 -3.371694 0.000000 2.107309 0.000000 2.107309 0.000000 0.000000 0.000000 2.107309 0.000000 -2.107309 -0.655607 -3.156280 0.000000 -3.156280 0.000000 0.000000 0.000000 0.000000 2.107309 0.000000 2.107309 0.000000 -2.107309 0.000000 -3.156280 0.000000 0.000000 0.000000 -2.107309 0.000000 -3.156280 0.000000 0.000000 -2.107309 -2.107309 0.000000 0.000000 0.000000 1.245653 -2.107309 -2.107309 0.000000 1.245653 0.000000 0.000000 0.000000 0.000000 0.000000 0.000000 1.245653 -3.156280 -2.107309 0.000000 1.245653 -2.107309 -2.107309 0.000000 1.245653 0.000000 1.245653 -3.156280 -2.107309 0.000000 0.000000 0.000000 0.000000 0.000000 0.000000 0.000000 1.245653 -3.156280 1.245653 0.000000 1.245653 0.000000 0.000000 0.000000 1.245653 0.000000 1.245653 -3.156280 0.000000 0.000000 0.000000 0.000000 -0.468291 0.000000 1.358043 0.749265 0.000000 1.245653 0.749265 1.245653 0.000000 1.245653 1.264385 0.000000 0.000000 1.264385 0.000000 0.000000 0.000000 1.128581 0.000000 0.000000 0.000000 0.000000 0.749265 1.245653 0.000000 1.245653 0.000000 0.000000 -0.655607 1.245653 0.000000 0.000000 0.000000 1.245653 0.000000 0.000000 0.000000 0.000000 0.000000 0.000000 0.000000 0.000000 0.000000 0.000000 1.245653 0.000000 0.000000 -0.655607 0.000000 -0.468291 0.000000 0.000000 0.000000 0.000000 1.245653 -0.655607 0.000000 0.000000 0.000000 0.000000 0.000000 0.000000 0.000000 0.000000 0.000000 0.000000 0.000000 -0.655607 0.000000 0.421462 0.000000 0.000000 0.000000 0.000000 0.000000 -0.655607 0.000000 0.000000 0.000000 0.000000 -1.685847 0.000000 0.000000 0.000000 0.000000 0.000000 0.421462 0.000000 0.000000 2.107309 -0.655607 0.000000 -2.107309 0.000000 0.000000 0.000000 -2.107309 0.000000 -1.451701 -0.491705 0.000000 -2.107309 0.000000 0.000000 0.000000 -2.107309 0.000000 0.000000 0.000000 -1.685847 0.000000 -1.685847 0.000000 0.000000 0.000000 0.000000 -0.655607 0.000000 0.000000 0.000000 0.000000 0.000000 0.000000 -1.685847 0.000000 0.000000 0.000000 0.000000 0.000000 0.000000 0.000000 0.000000 0.000000 0.000000 -1.685847 -2.107309 0.000000 0.000000 0.000000 0.000000 0.000000 0.000000 0.000000 0.000000 0.000000 0.000000 0.000000 0.000000 0.000000
A0A068Q5V6 3.194482 3.373871 2.960178 1.544680 3.485270 1.566123 2.573159 3.404467 2.792819 1.497871 2.768761 1.404254 1.791013 2.455222 3.419895 2.727967 1.387518 1.708117 1.293378 1.889859 1.290763 1.817424 1.910256 1.237940 1.778199 4.214593 0.871056 0.952382 0.767502 1.000498 1.757541 1.372090 1.199238 0.873933 1.749957 0.895637 1.971186 1.770616 1.716224 4.090119 0.650350 0.596743 0.900606 0.626031 0.820325 1.627837 1.773492 0.918649 0.788161 1.712301 1.679091 0.574515 0.667871 1.719885 0.849875 1.573445 1.037631 0.566932 0.871056 0.622631 0.790253 2.480588 1.719100 1.657386 0.984285 1.687197 0.801236 1.639343 1.020372 0.613479 0.571377 0.907143 0.593605 0.890930 1.763555 0.934862 1.889075 0.949506 2.664422 1.980600 0.817449 0.851705 3.209911 0.947675 1.862664 0.994484 1.914963 0.947152 0.658195 0.945060 0.643028 1.042861 0.813526 1.860049 2.427765 0.949244 1.986091 1.005990 1.862664 2.707047 1.324758 1.270366 2.620490 0.967026 1.863448 1.119742 1.392487 0.958920 1.819255 4.358941 1.100391 1.116343 2.476927 1.280042 2.132793 2.103766 1.021680 1.554094 0.812219 1.960464 2.212812 1.196623 1.033709 1.651110 1.293901 2.005704 1.228788 1.470675 3.721143 2.305383 2.240531 2.374680 2.664945 2.396646 1.199500 0.816141 0.803066 1.232710 1.021680 2.535764 2.224056 1.302792 0.760442 2.130701 1.089670 1.297824 2.761439 4.054294 2.563222 3.923805 2.854532 3.283392 1.303054 0.813003 2.321073 1.957326 1.337310 0.806204 1.300177 1.837037 2.599570 2.032115 1.232187 0.812219 1.865279 1.790751 1.435373 5.109707 4.188705 2.709662 2.871007 2.011195 1.432496 1.756495 2.226148 1.788136 1.424390 1.766693 1.712040 1.921762 2.192153 1.900058 1.656079 1.872078 1.956542 1.818993 2.453130 2.370496 3.366026 1.936145 1.829976 2.224841 1.738451 1.606132 2.280017 2.143776 1.925685 2.219611 2.255175 2.425934 2.278710 2.547009 1.934053 2.973515 2.041791 1.623653 2.407891 3.205988 2.000997 2.015902 2.158943 1.332603 2.194245 2.627812 2.015118 1.240555 2.294923 1.310899 2.172018 2.157374 1.971970 1.911302 1.991583 2.021132 1.311945 1.636205 1.218851 2.427503 1.367383 1.645619 4.647899 5.229997 1.211790 4.878280 1.970140 1.782122 1.281349 1.627052 5.229997 1.272981 3.912561 1.475382 5.229997 1.929869 1.630713 2.577866 1.829192 5.229997 1.595672 1.814025 1.537358 2.501246 2.501508 2.894019 2.043360 2.191630 1.919409 2.341208 2.233732 2.222749 0.000000 0.000000 -2.257162 0.000000 0.000000 0.000000 0.000000 0.000000 0.000000 0.000000 0.000000 0.000000 0.000000 0.000000 -2.257162 1.128581 0.000000 0.000000 0.000000 0.000000 0.000000 0.000000 0.000000 0.000000 -2.257162 0.000000 0.000000 0.000000 0.000000 0.000000 -2.257162 0.000000 0.000000 -2.107309 0.000000 -2.107309 -2.257162 -3.156280 1.128581 1.245653 0.000000 0.000000 0.000000 0.000000 0.000000 1.128581 0.000000 0.000000 -2.107309 1.128581 0.000000 0.000000 0.000000 1.128581 -2.107309 1.128581 -3.156280 0.000000 0.000000 0.000000 0.000000 1.128581 0.000000 1.128581 1.245653 0.000000 -2.107309 1.128581 1.245653 0.000000 0.000000 0.000000 0.000000 0.000000 1.128581 1.245653 0.749265 1.245653 0.000000 1.245653 0.000000 0.000000 0.000000 1.245653 0.000000 1.245653 0.000000 1.245653 0.000000 0.000000 0.000000 0.000000 0.000000 0.000000 0.000000 1.245653 0.749265 1.245653 0.000000 1.245653 0.000000 0.000000 0.000000 1.245653 0.000000 1.245653 0.000000 0.000000 0.000000 0.000000 0.000000 0.000000 0.000000 0.000000 0.000000 0.000000 1.245653 0.000000 1.245653 0.000000 1.245653 0.000000 0.000000 0.000000 0.000000 0.000000 -3.156280 0.000000 0.000000 0.000000 0.000000 0.000000 0.000000 0.000000 1.245653 0.000000 1.245653 0.000000 0.000000 0.000000 1.245653 0.000000 0.000000 0.000000 1.245653 -3.156280 0.000000 0.000000 0.000000 0.000000 0.000000 0.000000 0.000000 0.000000 0.000000 1.245653 0.000000 1.245653 0.000000 0.000000 -0.468291 0.000000 0.000000 0.000000 0.000000 1.245653 -0.655607 0.000000 0.000000 0.000000 0.000000 0.000000 0.000000 0.000000 -1.685847 0.000000 0.000000 0.000000 0.000000 0.000000 -1.685847 0.000000 0.000000 0.000000 0.000000 0.000000 -0.655607 0.000000 0.000000 0.000000 0.000000 -1.685847 0.000000 0.000000 0.000000 0.000000 0.000000 -1.685847 0.000000 0.000000 0.000000 -0.655607 0.000000 0.000000 0.000000 0.000000 0.000000 0.000000 0.000000 0.000000 0.046829 0.000000 -2.107309 -0.491705 0.000000 0.000000 0.000000 0.000000 0.000000 0.000000 -1.685847 0.000000 -1.685847 0.000000 0.000000 0.000000 0.000000 0.000000 0.000000 0.000000 0.000000 0.000000 0.000000 0.000000 -1.685847 0.000000 0.000000 0.000000 0.000000 0.000000 0.000000 0.000000 0.000000 0.000000 0.000000 -1.685847 0.000000 0.000000 0.000000 0.000000 0.000000 0.000000 0.000000 0.000000 0.000000 0.000000 0.000000 0.000000 0.000000 0.000000
A0A068Q609 2.466990 3.370210 2.295969 2.254390 2.400046 2.236085 2.949195 2.289170 1.927515 1.408177 2.355852 1.361107 1.465707 2.077355 2.281063 1.972755 1.446094 1.741851 1.003636 1.903719 1.021157 1.081825 1.717531 0.982455 1.826577 3.541231 1.850635 0.920741 1.049137 0.950552 1.939544 1.814548 1.803042 0.865826 1.918101 0.890146 1.979554 1.803826 1.927515 1.659478 0.898252 0.917342 0.920480 1.022203 0.872102 2.488694 1.860833 1.416545 0.844906 1.928823 1.759110 0.884916 0.865826 1.792320 0.926494 2.002566 1.053060 0.936170 0.941400 1.397455 0.904790 2.589110 4.024744 1.895874 0.951336 1.555140 0.935124 1.696611 1.069796 0.892499 0.979578 0.923618 2.242623 1.141970 3.114725 0.926233 1.729037 0.990823 1.617115 2.062449 1.831807 2.076309 1.911564 0.910020 1.641958 1.026910 1.834683 1.092023 1.119481 0.970426 2.064541 1.025341 2.797264 2.067418 1.859787 0.935385 1.726945 0.991346 1.652156 2.443716 1.885414 1.013573 1.828930 0.971472 1.737667 1.825008 1.739497 0.871841 1.789967 3.127015 2.198952 4.642930 2.602708 2.273480 1.129941 1.755710 1.058813 1.773754 0.816141 2.090168 2.215688 1.801734 0.840984 1.966217 1.812456 1.810364 2.311397 2.299891 2.405799 2.679851 2.036561 1.819778 1.811148 0.985331 2.535241 0.760442 0.963104 2.815569 0.792345 3.130938 1.708902 1.485058 0.769333 1.923593 1.200807 2.441101 1.191655 2.439009 1.668369 2.836489 1.759894 2.264066 1.674907 0.766718 2.053820 1.689028 1.477997 1.101437 2.309305 0.879424 2.269296 1.751526 1.459169 0.840461 1.747342 1.587566 2.159727 1.925162 2.982144 1.693473 2.213335 3.790179 1.642742 0.919172 2.206536 1.697134 1.551740 1.684321 2.088076 1.842005 2.580219 1.809318 1.570045 1.836514 1.729299 1.535266 2.248899 1.682490 1.964125 1.603517 1.863187 2.648209 1.992629 2.532626 2.253867 2.088338 1.918886 2.797787 2.016687 2.149529 1.820562 2.301722 1.547295 2.196599 1.847497 1.680660 2.277925 1.823177 1.511731 1.822654 2.146652 1.369475 2.236347 2.854271 1.776892 1.448448 1.857957 1.725115 1.535789 2.270080 2.047282 1.750219 2.025055 2.474312 1.422036 1.522975 1.396932 1.582597 1.539711 1.543111 1.735052 2.624674 1.676214 3.633541 2.036299 2.156328 1.485319 1.485058 2.241054 1.566907 1.706025 1.725376 3.186376 2.010411 1.496564 2.671221 2.113703 5.046947 1.666277 1.706025 1.616854 2.474835 2.613691 3.151858 2.234255 2.162081 1.948435 2.335978 2.092260 2.225364 2.107309 -0.655607 -0.655607 0.000000 0.000000 0.000000 0.000000 0.000000 0.000000 2.107309 0.000000 0.000000 2.107309 -2.257162 -0.655607 0.000000 0.000000 0.000000 2.107309 0.000000 2.107309 0.000000 0.000000 -2.107309 -2.257162 -3.156280 0.000000 2.107309 0.000000 0.000000 0.000000 0.000000 0.000000 -2.107309 0.000000 -2.107309 1.128581 -3.156280 1.128581 -3.156280 0.000000 0.000000 0.000000 0.000000 0.000000 0.000000 1.245653 -2.107309 -2.107309 1.128581 -3.156280 0.000000 0.000000 0.000000 -2.107309 1.128581 -3.156280 0.000000 0.000000 -2.107309 0.000000 1.128581 0.000000 0.749265 1.245653 0.000000 -2.107309 1.128581 1.245653 0.000000 0.000000 0.000000 0.000000 0.000000 0.000000 1.245653 0.000000 1.245653 0.000000 0.000000 0.000000 0.000000 0.749265 1.245653 0.000000 1.245653 0.000000 1.245653 0.000000 0.000000 0.000000 0.000000 0.000000 0.749265 0.000000 1.245653 1.264385 1.245653 0.000000 1.245653 0.000000 0.000000 1.264385 1.245653 0.000000 1.245653 1.264385 1.245653 0.000000 0.000000 0.000000 -0.655607 1.128581 -0.655607 0.000000 0.000000 1.245653 1.264385 1.245653 0.000000 1.245653 -3.348279 0.000000 0.000000 -3.348279 0.000000 -0.655607 -0.655607 -0.655607 0.000000 -2.257162 1.128581 0.000000 0.000000 1.245653 0.000000 1.245653 -0.655607 0.000000 0.000000 0.000000 0.000000 1.245653 0.000000 1.245653 -0.655607 0.000000 -0.655607 1.128581 0.000000 1.128581 -2.257162 0.000000 0.000000 0.000000 1.245653 0.000000 1.245653 -0.655607 0.000000 -2.107309 0.000000 0.000000 0.000000 0.000000 1.245653 -0.655607 1.128581 0.000000 1.128581 0.000000 0.000000 0.000000 0.000000 0.000000 0.000000 0.000000 1.245653 -0.655607 0.000000 -1.685847 0.000000 0.000000 0.000000 0.000000 0.000000 -0.655607 0.000000 0.000000 0.000000 0.000000 0.000000 0.000000 -0.655607 0.000000 0.000000 0.000000 0.421462 0.000000 -0.655607 0.000000 -0.655607 0.000000 0.000000 0.000000 0.000000 0.000000 0.000000 0.000000 0.000000 0.000000 0.000000 0.000000 0.000000 0.000000 0.000000 0.000000 0.000000 0.000000 0.000000 -1.685847 0.000000 -1.685847 0.000000 0.000000 0.000000 0.000000 0.000000 0.000000 0.000000 0.000000 0.000000 0.000000 -2.861257 -1.685847 0.000000 0.000000 0.000000 0.000000 0.000000 0.000000 0.000000 1.128581 0.000000 0.000000 0.000000 -2.107309 0.000000 0.000000 0.000000 0.000000 0.000000 0.000000 0.000000 0.000000 0.000000 0.000000 0.000000 0.000000 0.000000
A0A068Q6L2 3.296467 3.253320 2.202613 1.497610 3.504360 2.472743 2.490786 1.384642 1.824223 1.266705 3.171470 1.199238 1.310637 2.391416 3.320002 2.379126 1.304884 1.677260 1.014619 1.715439 1.103529 1.082609 1.754403 1.285272 1.797289 4.231591 0.924925 0.893284 0.990038 0.907666 1.874954 1.633851 1.137524 0.868180 1.677783 0.913158 1.822654 1.542849 1.731391 1.556447 0.852751 0.635706 0.858243 0.641982 0.825294 1.681706 2.681943 0.872364 0.810388 1.761725 1.514084 0.606157 0.883608 1.811933 0.900344 1.602210 0.985854 0.575300 0.880993 0.606418 0.818233 2.524520 1.653464 1.684582 0.843599 0.892499 0.848829 1.608224 0.919695 0.654534 0.577915 0.923095 0.579745 0.937216 1.712040 0.788684 1.838083 0.861119 2.381218 1.870509 0.656626 0.919695 1.964125 0.764103 2.252298 0.831047 1.470675 1.015142 0.662902 0.966242 0.617401 1.082871 0.655057 1.894828 2.053035 0.759657 1.497871 0.817972 2.070033 3.027384 1.540234 1.887506 1.786306 0.769071 1.941898 0.845429 1.432235 0.990823 2.598524 0.969380 1.166551 0.935647 3.792532 1.207868 1.779245 1.976939 0.805681 1.588089 0.887008 1.868155 2.318196 1.607963 0.960750 2.001781 2.623367 2.012241 2.673836 2.793080 2.708616 2.611861 3.327063 3.180884 5.229997 1.065612 1.086270 0.840461 0.884131 3.046996 0.871579 1.913917 1.788136 1.486888 0.786853 1.931176 0.953690 2.814000 1.217020 3.790702 3.177485 2.411813 2.833089 2.495493 1.587566 0.755212 2.151882 1.196623 1.577890 0.818495 2.683512 0.844906 2.631735 1.664185 1.473290 0.734030 1.762509 1.276642 2.799095 2.059311 2.843026 3.085698 2.393508 2.973253 1.633851 0.750505 2.764577 1.610839 1.641435 0.811434 3.330462 1.808010 2.600616 1.791797 1.624960 0.772732 1.794674 1.522452 3.085437 3.121262 4.051156 2.112919 1.873908 2.580219 1.611885 3.239199 0.893022 2.156589 1.933530 2.853225 1.934837 2.908663 1.167074 3.045166 1.131510 2.081800 1.926469 4.133267 1.411315 1.800950 1.906072 1.938760 2.045713 3.048565 1.129679 2.604800 1.428312 2.931152 1.060382 5.229997 1.127326 2.153451 1.965171 1.805657 2.009888 2.565052 2.009103 1.169166 1.467276 1.019849 2.419920 1.493164 2.276879 1.137786 1.570307 1.023249 1.994198 2.268511 1.525067 1.031094 1.497610 1.466230 0.997099 1.569784 1.087316 1.921501 1.580767 3.113417 2.231378 4.063446 1.583382 1.034755 1.525590 1.096469 2.491048 3.206250 2.043883 2.152405 1.891167 2.394554 2.192415 2.202352 0.000000 0.000000 -0.655607 0.000000 0.000000 0.000000 0.000000 0.000000 -2.107309 0.000000 0.000000 0.000000 0.000000 0.000000 0.000000 0.000000 0.000000 0.000000 0.000000 0.000000 2.107309 0.000000 0.000000 0.000000 -2.257162 -3.156280 0.000000 0.000000 0.000000 0.000000 0.000000 0.000000 0.000000 2.107309 0.000000 -2.107309 -2.257162 -3.156280 1.128581 -3.156280 0.000000 0.000000 0.000000 0.000000 0.000000 1.128581 1.245653 0.000000 -2.107309 1.128581 -3.156280 0.000000 0.000000 0.000000 -2.107309 1.128581 -3.156280 0.000000 0.000000 0.000000 0.000000 0.000000 1.245653 1.128581 -3.156280 0.000000 -2.107309 1.128581 -3.156280 0.000000 0.000000 0.000000 0.000000 0.000000 1.128581 1.245653 1.264385 1.245653 0.000000 1.245653 0.000000 0.000000 1.264385 1.245653 0.000000 1.245653 0.000000 1.245653 0.000000 0.000000 0.000000 0.000000 0.000000 0.000000 0.000000 1.245653 -3.348279 1.245653 0.000000 1.245653 0.000000 1.245653 1.264385 1.245653 0.000000 1.245653 -3.348279 1.245653 0.000000 0.000000 0.000000 0.000000 0.000000 0.000000 0.749265 0.000000 1.245653 -3.348279 1.245653 0.000000 1.245653 -3.348279 1.245653 0.000000 1.264385 0.000000 0.000000 0.000000 -0.655607 0.000000 0.000000 0.000000 0.749265 0.000000 1.245653 1.245653 1.245653 0.000000 0.000000 0.000000 1.245653 0.000000 1.245653 0.000000 1.245653 0.000000 0.000000 0.000000 0.000000 0.000000 0.000000 0.000000 0.000000 1.245653 0.000000 1.245653 0.000000 1.245653 0.000000 0.000000 -0.468291 1.245653 0.000000 1.245653 0.000000 1.245653 0.000000 0.000000 0.000000 -2.107309 0.000000 0.000000 0.000000 0.000000 0.000000 1.245653 0.000000 1.245653 0.000000 0.000000 -1.685847 0.000000 0.000000 0.000000 0.000000 1.245653 -0.655607 0.000000 0.000000 0.000000 0.000000 -1.685847 0.000000 -0.655607 0.000000 0.000000 1.245653 0.421462 0.000000 -0.655607 0.000000 -0.655607 0.000000 -1.685847 0.000000 -2.107309 0.000000 0.000000 0.000000 0.000000 -1.685847 0.000000 0.000000 0.046829 0.000000 0.000000 0.000000 0.000000 0.000000 0.000000 -1.685847 0.000000 -1.685847 0.000000 0.000000 0.000000 0.000000 0.000000 0.000000 0.000000 0.000000 0.000000 0.000000 0.000000 -1.685847 0.000000 0.000000 0.000000 0.000000 0.000000 0.000000 0.000000 0.000000 0.000000 0.000000 0.421462 0.000000 0.000000 0.000000 0.000000 0.000000 0.000000 0.000000 0.000000 0.000000 0.000000 0.000000 0.000000 0.000000 0.000000
A0A068Q721 3.259596 3.214356 2.079447 2.125994 3.346414 2.078924 2.578127 2.175417 2.172279 1.272458 2.973776 1.190347 1.486627 2.382525 3.243644 3.559798 1.377320 1.698965 1.020634 1.835729 1.212313 1.079471 1.871555 1.267228 1.753880 1.969094 1.653464 0.859812 1.044692 0.887792 1.774277 1.601425 1.737405 0.802020 1.703672 0.848044 1.884368 1.736621 1.671246 1.782645 0.869749 0.613740 0.834185 0.606157 0.764103 1.629929 1.145892 0.731154 0.755735 1.634897 1.020111 0.589159 0.865565 1.758587 0.843076 1.575798 0.900867 0.548627 0.808296 0.566147 0.760442 2.557992 0.989254 1.679352 0.905313 0.711280 0.794437 1.609270 0.865565 0.644074 0.553857 0.881778 0.545750 0.858243 1.803826 0.835754 2.119195 1.024818 2.365789 0.936693 0.597527 0.853797 2.989466 0.884916 2.227456 0.852490 1.593842 1.414976 0.638060 0.898775 0.581053 1.020111 0.600927 1.944513 2.012503 0.853536 1.596980 0.904005 1.963602 0.998668 0.870795 1.746819 1.785260 0.811957 1.916532 0.930417 1.468583 0.896683 1.090193 0.843599 1.037370 0.815095 2.181170 0.917080 1.753618 2.010411 0.789468 1.578936 0.773778 1.845928 1.186425 1.574229 0.995530 1.257814 1.390133 2.090168 2.370496 2.182216 1.892736 2.173587 2.181693 2.971423 2.305644 2.115011 0.996314 0.813265 0.671793 1.422298 0.992392 1.916271 1.307499 1.156352 0.679638 1.387780 0.679115 2.570021 2.704432 2.099321 2.478496 1.891690 3.017447 2.170710 1.168904 0.819279 2.065326 1.732437 1.132294 0.647997 2.594863 1.594103 2.398477 1.649803 1.127587 0.693759 1.192701 0.695851 2.291262 1.786044 2.524520 2.926183 2.970638 2.349838 1.247616 1.580244 1.964910 1.518791 1.141185 0.702127 1.736359 1.538404 2.554592 1.767478 1.259383 2.551454 1.235587 1.467537 2.487910 1.744204 2.030546 2.068202 2.261712 2.905525 1.537358 1.544941 1.569784 1.630190 1.860049 2.936905 1.913917 2.314012 1.741851 2.007796 2.217780 2.254652 1.840175 1.537619 2.095398 1.908949 1.859264 1.835729 2.006227 2.662330 2.296492 2.877544 1.760156 3.498084 2.034730 1.931438 1.936929 1.943728 2.090168 1.734790 1.964387 1.863187 1.677783 1.504409 1.508331 1.544680 2.257528 1.542065 3.583071 2.383571 1.650326 2.221441 2.019825 2.113703 1.497610 1.439818 3.985519 1.483750 1.672815 1.623130 3.747032 1.931176 1.492903 2.611076 1.678306 4.242835 1.559324 1.547818 1.552002 2.485295 2.508830 3.070793 2.221180 2.238177 1.903719 2.571590 2.213858 2.206274 0.000000 0.000000 -0.655607 0.000000 0.000000 0.000000 0.000000 0.000000 0.000000 0.000000 0.000000 0.000000 0.000000 0.000000 0.000000 1.128581 0.000000 0.000000 0.000000 0.000000 2.107309 0.000000 0.000000 0.000000 -2.257162 -3.156280 0.000000 0.000000 0.000000 0.000000 0.000000 0.000000 0.000000 -2.107309 0.000000 -2.107309 -2.257162 -3.156280 1.128581 1.245653 0.000000 0.000000 0.000000 0.000000 0.000000 1.128581 -3.156280 0.000000 -2.107309 1.128581 -3.156280 0.000000 0.000000 0.000000 -2.107309 1.128581 1.245653 0.000000 0.000000 0.000000 0.000000 0.000000 1.245653 1.128581 1.245653 0.000000 -2.107309 1.128581 1.245653 0.000000 0.000000 0.000000 0.000000 0.000000 1.128581 1.245653 1.264385 1.245653 0.000000 1.245653 0.000000 0.000000 1.264385 1.245653 0.000000 1.245653 0.000000 1.245653 0.000000 0.000000 0.000000 0.000000 0.000000 0.000000 0.000000 1.245653 1.264385 1.245653 0.000000 1.245653 0.000000 0.000000 1.264385 1.245653 0.000000 1.245653 -3.348279 0.000000 0.000000 0.000000 0.000000 0.000000 0.000000 0.000000 0.000000 0.000000 1.245653 0.000000 0.000000 0.000000 1.245653 -3.348279 0.000000 0.000000 0.000000 0.000000 -0.655607 0.000000 0.000000 0.000000 0.000000 0.000000 -3.348279 0.749265 1.245653 0.000000 0.000000 0.000000 0.000000 0.000000 1.245653 0.000000 0.000000 0.000000 1.245653 -0.655607 1.245653 -2.861257 0.000000 -2.861257 0.000000 -0.655607 0.000000 0.000000 0.000000 1.245653 0.000000 0.000000 0.000000 0.000000 -2.107309 1.245653 0.000000 0.000000 0.000000 0.000000 -0.655607 0.000000 0.000000 0.000000 0.000000 0.000000 0.000000 0.000000 0.000000 1.245653 0.000000 0.000000 0.000000 0.000000 -1.685847 0.000000 0.000000 0.000000 0.000000 0.000000 -0.655607 0.000000 0.000000 0.000000 0.000000 0.000000 0.000000 0.000000 0.000000 0.000000 0.000000 0.421462 0.000000 -0.655607 0.000000 0.000000 0.000000 0.000000 0.000000 0.000000 0.000000 0.000000 0.000000 0.000000 -1.685847 0.000000 0.000000 0.421462 0.000000 0.000000 -2.107309 0.000000 0.000000 0.000000 -1.685847 0.000000 -1.685847 0.000000 0.000000 0.000000 0.000000 0.000000 0.000000 0.000000 0.000000 0.000000 0.000000 -2.107309 -1.685847 0.000000 0.000000 0.000000 -0.655607 0.000000 0.000000 0.000000 -0.655607 0.000000 0.000000 0.000000 0.000000 0.000000 0.000000 0.000000 0.000000 -2.107309 0.000000 0.000000 0.000000 0.000000 0.000000 0.000000 0.000000 0.000000
A0A0B4L1W8 2.045190 2.441101 2.313751 3.450229 1.993675 1.916532 2.757255 1.916532 2.042837 1.422298 2.777913 1.286579 2.100105 2.687434 1.916009 2.799095 3.172255 2.066633 1.218066 2.527396 1.230095 1.265659 2.115795 1.209960 1.960203 2.165742 1.559324 0.847783 1.039200 0.850921 1.734267 1.777676 1.876000 0.788684 1.866063 0.838369 2.276618 2.150052 1.738713 2.505953 0.833923 0.895899 0.779270 0.927017 0.718602 1.606917 1.854296 1.624176 0.706834 2.446331 1.797550 0.767241 0.785807 2.145083 0.781100 1.908949 1.872339 0.819802 0.731938 0.894068 0.688529 1.966740 1.887244 3.158918 1.070319 2.003873 0.711280 2.330225 1.814548 0.738214 0.757565 0.795744 0.856412 0.736645 2.328133 0.959704 2.895588 0.858766 2.172541 2.929060 1.624960 0.727231 3.253320 0.885962 2.435610 1.060382 2.445808 0.810650 0.764626 0.783977 0.832616 0.935647 1.663139 0.839676 3.586732 0.885439 4.916982 0.918649 2.484249 2.127301 1.855603 0.929371 5.229997 0.866088 2.490263 1.027171 3.963292 1.215451 0.800190 0.884654 0.848306 2.042575 1.446617 2.870745 1.979554 3.471672 0.915511 3.960415 0.959966 2.843811 2.391416 3.179054 1.181718 4.642146 3.739187 3.310850 2.952595 2.757255 1.971970 0.990823 0.940615 2.968285 2.485818 1.194008 1.241078 0.926494 0.957612 3.335954 0.957612 2.953641 2.440317 4.026575 0.833662 3.320002 1.021418 2.934551 1.264875 2.999142 4.452820 2.027147 3.224032 1.850373 4.253034 0.803328 3.502006 1.240817 4.552974 0.839415 4.097964 0.964411 2.746272 1.784475 3.940541 0.761226 4.771065 1.202638 3.418849 2.712800 2.472481 2.826029 2.545178 4.284937 4.238651 0.788422 2.643502 1.784214 5.229997 0.817449 3.288884 2.170187 2.373634 1.911302 5.229997 0.790776 3.404990 1.619469 3.616805 2.790204 3.564243 2.608984 2.688742 3.388777 1.703149 4.886909 0.932509 5.229997 2.129393 2.628335 2.029762 2.014072 2.817661 2.270865 2.995219 3.690548 1.759371 2.363697 2.372327 5.102647 2.672529 1.993413 2.803540 2.076832 1.644573 2.964101 1.491072 2.005965 1.199761 2.141684 1.241078 5.229997 2.549885 1.848020 2.886435 1.991060 3.287576 1.362414 2.103766 1.128110 3.387469 1.431450 4.617042 1.144323 2.398477 1.055152 3.252797 1.787090 3.416496 1.106406 1.343848 5.229997 1.048876 3.832803 1.096730 3.150027 1.169950 2.538118 1.706287 1.229311 3.042289 1.074241 3.544108 1.082609 2.328133 1.124188 2.470389 1.144062 2.210981 2.426719 2.702340 2.569759 -0.655607 -0.655607 -0.655607 0.000000 -0.655607 -0.655607 -0.655607 -0.655607 -0.655607 0.000000 -0.655607 0.000000 0.000000 0.000000 -0.655607 0.000000 0.000000 -0.655607 2.107309 0.000000 2.107309 2.107309 0.000000 0.000000 0.000000 -3.348279 0.000000 2.107309 0.000000 2.107309 0.000000 0.000000 0.000000 -2.107309 0.000000 -2.107309 0.000000 -3.348279 0.000000 0.000000 0.000000 0.000000 0.000000 0.000000 -2.107309 0.000000 -2.107309 0.000000 -2.107309 0.000000 0.000000 0.000000 0.000000 0.000000 -2.107309 0.000000 0.000000 0.000000 0.000000 0.000000 -2.107309 0.000000 0.000000 0.000000 -3.156280 0.000000 -2.107309 1.128581 0.000000 0.000000 0.000000 0.000000 0.000000 0.000000 1.128581 -3.156280 -2.107309 -2.107309 0.000000 0.000000 0.000000 -2.107309 0.749265 1.245653 1.128581 1.245653 2.107309 -2.107309 0.000000 0.000000 0.000000 0.000000 0.000000 -2.107309 0.000000 1.245653 0.000000 1.245653 0.000000 1.245653 -2.107309 -2.107309 0.000000 1.245653 1.128581 1.245653 1.264385 1.245653 0.000000 0.000000 0.000000 0.000000 0.000000 0.000000 0.000000 0.749265 1.245653 -3.156280 1.245653 0.000000 1.245653 -0.655607 1.245653 -2.107309 0.000000 0.749265 -0.655607 -0.655607 0.000000 0.000000 0.000000 0.000000 0.749265 0.000000 1.245653 1.245653 1.245653 0.000000 0.000000 0.000000 1.245653 0.000000 1.245653 0.749265 1.245653 -0.655607 0.000000 -0.655607 0.000000 0.000000 0.000000 0.000000 1.245653 0.000000 0.000000 1.245653 0.000000 1.245653 0.000000 0.000000 -1.685847 1.245653 1.245653 1.245653 0.000000 1.245653 0.000000 0.000000 0.000000 0.000000 0.000000 0.000000 -2.107309 0.000000 -1.685847 1.245653 0.000000 1.245653 0.000000 0.000000 -1.685847 0.000000 0.000000 0.000000 0.000000 1.245653 0.000000 0.000000 0.000000 0.000000 0.000000 -1.685847 0.000000 -0.468291 0.000000 0.000000 0.000000 0.421462 0.000000 -0.655607 0.000000 -0.655607 0.000000 1.245653 0.000000 -0.468291 0.000000 0.000000 0.000000 0.000000 1.245653 -0.655607 0.000000 0.000000 0.000000 -0.655607 0.000000 -0.655607 0.000000 0.000000 -3.156280 0.000000 1.245653 0.000000 -0.468291 0.000000 -0.655607 0.000000 0.000000 0.000000 1.128581 0.000000 -0.655607 0.000000 0.000000 0.000000 -2.107309 0.000000 0.000000 -0.655607 0.000000 -0.655607 0.000000 -2.107309 0.000000 -1.685847 0.000000 0.000000 0.000000 0.000000 0.000000 0.000000 0.000000 0.000000 0.000000 0.000000 0.000000 0.000000 0.000000 0.000000
A0A0C5Q4Y6 2.021132 3.248874 2.067418 2.096183 2.583357 1.980600 2.702078 3.470888 1.990537 1.925946 2.871791 1.958634 1.868678 1.698180 2.106120 2.420966 2.383833 1.632544 1.585212 2.566098 1.317698 1.953404 1.873908 2.533411 1.593319 2.245499 1.511469 1.201592 1.532651 1.262783 1.624437 3.283131 1.619469 1.131248 1.551217 1.157137 1.749957 2.492355 1.528728 1.743681 1.167858 1.547818 1.024033 1.650326 1.161582 1.518530 1.708379 1.525852 1.113728 1.658694 1.672292 1.066396 0.921264 1.905288 1.656079 1.598549 1.578936 2.429857 0.876548 1.591750 0.857458 0.150624 3.246521 1.713870 1.593319 1.675168 1.015665 2.513014 1.668108 0.930417 1.042338 0.838630 1.092285 0.786330 2.515629 1.729037 2.160512 1.162890 0.135457 2.510399 1.512777 0.813003 2.932721 1.168381 1.904765 1.957065 1.854034 1.030832 0.996837 0.927540 1.032401 0.798882 1.652941 0.788161 2.173064 1.734267 1.901888 1.047045 0.128135 2.265373 2.139853 0.864780 2.519813 1.115558 1.844620 2.105858 2.152928 1.074241 1.059859 1.093069 0.937216 4.013761 0.846737 3.275286 0.865303 2.490263 1.701318 2.280279 1.077118 0.129442 2.412075 2.382787 1.283180 2.500462 2.386448 2.444501 3.669366 3.479517 3.557967 1.291809 1.299654 1.991060 1.882538 1.280826 2.467251 1.117912 1.140139 3.098773 1.017757 0.139902 2.364743 2.761700 1.120004 2.455745 1.254153 4.766881 1.224342 3.543846 1.789444 4.754067 1.743158 1.682752 3.000188 0.966503 2.594602 1.826838 2.151621 1.219897 2.672790 0.963888 0.175466 1.991583 2.281063 1.078164 2.153974 1.940852 3.449968 2.011195 4.290428 1.828930 2.123117 1.737928 2.640103 0.968857 2.801710 1.824746 2.246284 1.861879 2.573682 1.062212 2.818184 1.928038 3.044381 1.361630 2.526612 1.763032 3.621250 2.574466 5.229997 2.364220 2.173848 3.013263 1.943467 2.713846 2.515106 2.498893 1.782383 2.501769 1.846189 1.454201 2.243407 1.985307 2.882513 2.663638 2.123902 1.552002 2.307213 5.229997 5.037533 2.178294 1.957065 1.406869 4.187659 1.675691 1.936406 1.481397 4.088027 1.775584 5.229997 5.137426 1.912610 1.893782 1.969617 2.553023 1.445571 2.060096 1.443218 3.745724 1.645619 2.019040 1.912348 5.229997 1.588350 5.229997 1.922808 3.016662 1.695304 1.952096 5.229997 1.569784 4.895277 1.580505 5.229997 1.997597 2.214119 2.533149 2.458099 2.224318 1.977462 2.976653 1.981123 2.371804 2.587541 2.565052 2.089384 1.987137 1.884107 2.121287 2.025578 2.115011 0.000000 0.000000 0.000000 -2.257162 0.000000 1.128581 -0.655607 0.000000 1.128581 1.128581 0.000000 -2.257162 1.128581 -0.655607 0.000000 0.000000 0.000000 -2.107309 0.000000 0.000000 0.000000 1.128581 0.000000 0.000000 0.000000 0.000000 0.000000 0.000000 -2.107309 0.000000 0.000000 0.000000 0.000000 0.000000 0.000000 0.000000 0.000000 0.000000 0.000000 -3.156280 2.107309 -2.107309 2.107309 0.000000 2.107309 0.000000 -3.156280 0.000000 0.000000 0.000000 -3.156280 2.107309 2.107309 0.000000 0.000000 0.000000 -3.156280 0.000000 2.107309 0.000000 -2.107309 0.000000 1.245653 0.000000 -3.156280 0.000000 -2.107309 0.000000 -3.156280 2.107309 0.000000 2.107309 0.000000 -2.107309 0.000000 0.000000 0.000000 1.245653 0.000000 0.000000 -2.107309 -2.107309 0.749265 1.245653 0.000000 0.000000 0.000000 -2.107309 0.000000 2.107309 0.000000 -2.107309 0.000000 -2.107309 1.128581 1.245653 0.749265 1.245653 0.000000 0.000000 0.000000 -2.107309 -3.348279 1.245653 0.000000 1.245653 0.000000 1.245653 0.000000 0.000000 -2.107309 0.000000 -2.107309 0.000000 -2.107309 0.000000 1.245653 0.749265 1.245653 0.000000 0.000000 0.000000 1.245653 -1.451701 -3.348279 1.128581 -0.655607 -0.655607 0.000000 0.000000 0.000000 -0.655607 -0.655607 1.245653 1.245653 1.245653 1.245653 0.000000 1.245653 0.000000 0.000000 0.000000 1.245653 0.000000 1.245653 0.000000 0.000000 -0.655607 -0.655607 0.000000 -0.655607 -0.655607 -0.655607 1.245653 -2.107309 1.245653 0.000000 1.245653 -0.655607 0.000000 -0.468291 0.000000 0.000000 1.245653 0.000000 1.245653 0.000000 0.000000 0.000000 -0.655607 -0.655607 -0.655607 -0.655607 0.000000 -1.685847 0.000000 0.000000 1.245653 -0.655607 0.000000 0.421462 0.000000 0.000000 1.245653 -2.107309 0.000000 0.000000 -0.655607 0.000000 -0.655607 -0.655607 -1.685847 0.000000 0.000000 0.000000 -2.107309 0.000000 0.421462 0.000000 0.000000 -2.107309 0.000000 0.000000 -0.491705 0.000000 0.000000 2.107309 0.000000 2.107309 0.000000 -1.685847 0.000000 0.000000 0.000000 -1.451701 0.000000 -0.655607 0.000000 0.000000 0.000000 -1.685847 -1.451701 -1.685847 0.000000 0.000000 0.000000 0.000000 0.000000 0.000000 0.000000 0.000000 0.000000 0.000000 -0.655607 -1.685847 2.107309 0.000000 0.000000 0.000000 0.000000 0.000000 0.000000 0.000000 0.000000 0.000000 0.421462 -2.107309 0.000000 0.000000 0.000000 0.000000 0.000000 0.000000 0.000000 0.000000 0.000000 0.000000 0.000000 0.000000 0.000000
A0A0N7F297 3.251228 2.702078 2.681681 1.552002 3.089098 3.160487 1.946605 1.301746 1.661570 1.185117 2.018517 1.194531 1.228003 2.690049 3.707022 2.073955 1.172042 1.554617 0.828432 1.632021 0.788684 0.861381 1.612670 0.778747 1.964648 3.091713 1.001283 0.716510 0.880470 0.779793 2.015118 1.521668 1.744466 0.673362 1.724592 0.696897 3.363411 1.729560 2.170710 1.653987 0.808035 0.833923 0.735076 0.872625 0.657411 2.275049 0.866611 1.434327 0.646428 2.424627 1.690858 0.779793 0.795483 1.622868 0.702650 3.274240 0.901390 0.841507 0.706311 0.921526 0.661595 2.494447 1.799119 2.362651 0.868180 1.442695 0.683561 2.511183 0.877594 0.796529 0.821633 0.863996 0.977748 0.758873 4.366002 0.819018 1.957849 0.832093 2.601139 1.006513 1.693996 0.746844 2.036038 0.834969 3.712514 0.853797 2.059050 0.893807 0.903744 0.889623 2.073171 1.495518 3.472718 1.906857 2.372588 0.825817 1.986876 0.867918 2.097490 3.071577 2.698156 1.046784 2.795434 0.830524 2.301983 0.923095 2.634088 0.807773 1.022987 2.644287 1.687197 3.098773 2.486864 3.339615 1.907118 2.416259 0.891192 2.660238 0.692190 2.319504 2.133839 2.513275 0.836800 2.152928 2.759085 2.322119 3.770305 3.760368 4.006178 1.523237 1.513561 1.511731 1.588350 1.000760 1.003375 0.676239 0.664733 3.653676 0.759657 2.848518 1.794151 2.026885 0.621062 2.264850 0.765149 2.685081 1.774015 2.910232 1.414191 2.826552 1.505716 1.566907 3.116294 0.645382 2.520859 1.183810 1.885152 0.636752 2.942919 0.888838 2.761439 1.550171 1.969094 0.630215 1.926469 0.805681 2.714892 1.567430 2.720122 1.503363 2.973253 2.393508 2.639580 0.702650 2.628335 1.493687 2.022701 0.690360 3.938711 1.685105 2.497847 1.619992 2.944227 0.736907 2.388801 1.427528 3.915176 2.172018 2.200260 2.235039 2.053558 2.650301 1.384642 2.922261 1.770354 2.247330 1.802257 2.860024 1.816117 4.715104 2.240531 4.883248 2.396908 3.088052 1.437203 4.087243 2.013810 2.071079 2.003350 1.915225 2.028454 4.869650 2.207059 2.446070 1.769570 5.147625 2.107166 5.229997 2.145083 2.350884 1.944513 1.727468 2.053558 1.771662 3.678780 2.170187 4.932933 4.432946 2.238700 1.787613 4.784924 5.229997 5.142133 4.621226 1.989491 1.771139 4.116531 1.960987 5.229997 2.844857 4.340375 5.229997 5.229997 2.691618 1.767478 3.403159 2.195553 5.229997 2.179340 2.653439 2.415997 2.533149 2.376249 2.920692 2.666776 2.427503 2.037345 2.166788 2.264066 2.254652 0.000000 -0.655607 1.128581 0.000000 0.000000 0.000000 0.000000 0.000000 -2.107309 2.107309 0.000000 0.000000 2.107309 0.000000 1.128581 0.000000 0.000000 0.000000 2.107309 0.000000 2.107309 2.107309 0.000000 -2.107309 0.000000 1.128581 0.000000 2.107309 0.000000 2.107309 0.000000 0.000000 0.000000 -2.107309 0.000000 -2.107309 0.000000 -3.156280 0.000000 -2.107309 0.000000 0.000000 2.107309 0.000000 -2.107309 0.000000 -2.107309 -2.107309 -2.107309 0.000000 -3.156280 0.000000 0.000000 -2.107309 -2.107309 0.000000 1.245653 0.000000 0.000000 0.000000 -2.107309 0.000000 1.245653 0.000000 1.245653 -2.107309 -2.107309 0.000000 1.245653 0.000000 0.000000 0.000000 0.000000 -2.107309 0.000000 1.245653 0.000000 1.245653 0.000000 1.245653 -2.107309 -2.107309 0.000000 1.245653 0.000000 1.245653 0.000000 1.245653 0.000000 0.000000 0.000000 0.000000 0.000000 0.749265 0.000000 1.245653 0.000000 1.245653 0.000000 1.245653 0.000000 0.000000 0.000000 1.245653 0.000000 1.245653 0.000000 0.000000 0.000000 0.000000 0.000000 1.128581 -0.655607 1.128581 0.000000 0.000000 1.245653 1.128581 1.245653 0.000000 1.245653 -2.257162 0.000000 0.000000 1.128581 0.000000 -2.257162 0.000000 1.128581 -0.655607 -0.655607 -0.655607 -0.655607 0.000000 1.245653 0.000000 1.245653 0.000000 0.000000 0.000000 1.245653 0.000000 0.000000 0.000000 1.245653 1.128581 0.000000 1.128581 -0.655607 0.000000 -0.655607 -0.655607 0.000000 0.000000 -2.107309 1.245653 0.000000 1.245653 1.128581 0.000000 -0.468291 1.245653 0.000000 0.000000 0.000000 1.245653 1.128581 -0.655607 0.000000 -0.655607 0.000000 -0.655607 0.000000 0.000000 -1.685847 1.245653 0.000000 0.000000 0.000000 0.000000 -1.685847 0.000000 2.107309 0.000000 -2.107309 1.245653 0.000000 0.000000 2.107309 0.000000 0.000000 -1.685847 0.000000 0.000000 0.000000 -2.107309 0.000000 0.421462 0.000000 0.000000 0.000000 -3.348279 0.000000 -0.491705 0.000000 0.000000 -2.107309 0.000000 0.000000 0.000000 -1.685847 2.107309 0.000000 0.046829 0.000000 0.749265 -2.107309 -0.655607 0.000000 0.000000 -1.685847 0.000000 -1.685847 0.000000 0.421462 0.000000 0.000000 0.000000 -1.685847 0.000000 -2.861257 0.000000 0.950630 0.000000 -1.685847 0.000000 0.000000 0.000000 0.000000 0.000000 0.000000 0.000000 0.000000 0.000000 0.000000 -0.491705 0.000000 0.000000 0.000000 0.000000 0.000000 -2.107309 0.000000 0.000000 0.000000 0.000000 -1.451701 0.000000 0.000000 0.000000
A0A0N9HT29 2.116057 3.742063 1.986091 2.253867 3.595100 3.867844 1.940852 2.301460 2.214119 1.353785 1.850373 1.248139 1.799904 3.189252 2.184047 2.056173 1.254676 1.580244 1.043123 1.773492 1.028740 1.268536 1.575537 1.242124 1.862664 3.658906 0.751289 0.860858 0.596743 0.919434 1.845928 1.654510 1.045476 0.844122 1.593319 0.822940 2.920169 1.741066 2.022701 3.040720 0.516201 0.492927 0.833662 0.530322 0.816403 2.045190 0.936170 0.796529 0.764887 3.026338 1.645619 0.463116 0.506264 1.986353 0.789207 2.647686 1.019326 0.467039 0.834969 0.522477 0.794437 2.016948 1.745250 2.810601 0.976179 0.868703 0.776916 1.850373 0.944799 0.473576 0.457886 0.564840 0.483775 0.886223 1.926469 0.889361 1.755710 0.857458 1.945559 1.027694 0.611125 0.862688 3.466704 0.923618 1.940852 0.897991 1.840175 0.907405 0.491881 0.553595 0.497634 0.886485 0.568501 1.088624 2.272695 0.880209 1.815594 1.065089 2.008842 1.044169 2.008580 1.968309 2.054343 0.917080 1.842528 0.942707 1.937714 0.996053 0.775609 0.610602 1.004682 0.733507 1.053583 0.982978 1.968048 1.956019 0.948983 1.958895 0.845168 1.880446 2.010411 2.189800 1.070842 1.980077 2.250991 2.077093 3.041766 3.055103 4.398166 2.244976 1.913394 2.792034 2.338593 2.348530 1.047045 0.872887 0.751289 2.810862 1.029786 2.008580 1.371305 3.561628 0.732984 1.847758 0.777962 2.769284 2.367358 4.068153 3.234753 4.086981 2.209412 3.599023 3.637986 0.825294 2.066110 1.290240 1.672815 0.707880 2.997311 1.990798 2.265896 1.753880 1.713870 0.734292 1.630452 0.782146 3.772135 2.469605 4.568664 1.959157 3.613405 2.168357 2.349576 1.040508 2.365789 1.652156 1.669677 0.755996 2.694495 2.326564 2.145345 1.866063 2.586495 0.912896 1.720146 1.608747 3.294637 1.939283 5.229997 2.038130 3.854246 2.530273 1.666277 2.382787 2.324734 2.083369 2.048590 2.301722 2.016687 4.101887 2.068725 5.229997 2.616829 2.140638 1.928561 1.303315 2.391416 4.968497 4.079659 1.859787 3.145843 1.121573 2.227194 1.302269 1.894828 1.168643 2.253344 5.229997 4.478970 4.347435 1.386211 1.794412 1.983999 1.869986 1.142231 1.515653 1.102745 3.485009 1.218851 1.526636 5.229997 4.929011 1.527421 5.035703 1.438249 1.628621 1.166289 1.508854 4.822057 1.278996 4.504074 1.520622 4.670911 1.374443 1.505978 2.659454 1.636989 2.526612 1.423344 1.634374 1.424128 3.862614 2.387494 2.443978 2.016948 2.135931 1.576844 1.886460 1.953665 2.077093 -0.655607 -0.655607 -0.655607 0.000000 0.000000 0.000000 0.000000 0.000000 0.000000 0.000000 0.000000 0.000000 0.000000 0.000000 -3.371694 0.000000 0.000000 0.000000 0.000000 0.000000 0.000000 0.000000 0.000000 2.107309 0.000000 0.000000 0.000000 0.000000 0.000000 0.000000 0.000000 0.000000 0.000000 0.000000 0.000000 -2.107309 0.000000 -3.156280 0.000000 1.245653 0.000000 0.000000 0.000000 0.000000 0.000000 0.000000 -2.107309 0.000000 0.000000 0.000000 -3.156280 0.000000 0.000000 0.000000 -2.107309 0.000000 -3.156280 0.000000 0.000000 0.000000 0.000000 0.000000 -3.156280 0.000000 1.245653 0.000000 0.000000 0.000000 1.245653 0.000000 0.000000 0.000000 0.000000 0.000000 0.000000 1.245653 0.000000 -2.107309 0.000000 1.245653 0.000000 0.000000 0.749265 1.245653 0.000000 1.245653 0.000000 0.000000 0.000000 0.000000 0.000000 0.000000 0.000000 0.000000 0.000000 1.245653 0.749265 1.245653 0.000000 1.245653 0.000000 0.000000 -3.348279 1.245653 0.000000 1.245653 0.000000 0.000000 0.000000 0.000000 0.000000 0.000000 0.000000 0.000000 0.000000 0.000000 1.245653 1.264385 0.000000 0.000000 1.245653 0.000000 0.000000 0.000000 1.264385 0.000000 0.000000 0.000000 0.000000 0.000000 0.000000 0.000000 0.000000 0.000000 1.245653 0.000000 1.245653 0.000000 0.000000 0.000000 1.245653 0.000000 0.000000 0.000000 1.245653 0.000000 -3.348279 0.000000 0.000000 0.000000 0.000000 0.000000 0.000000 0.000000 0.000000 1.245653 0.000000 0.000000 0.000000 0.000000 -1.685847 1.245653 0.000000 0.000000 0.000000 1.245653 0.000000 0.000000 0.000000 0.000000 0.000000 0.000000 0.000000 0.000000 0.000000 1.245653 0.000000 0.000000 0.000000 0.000000 -1.685847 0.000000 0.000000 0.000000 0.000000 0.000000 0.000000 0.000000 0.000000 0.000000 2.107309 0.046829 0.000000 0.000000 0.000000 0.000000 0.000000 -1.685847 0.000000 0.000000 -2.107309 0.000000 0.000000 -2.107309 0.000000 0.000000 0.000000 0.749265 0.000000 0.000000 -0.491705 0.000000 -2.107309 0.421462 0.000000 0.000000 -2.107309 0.000000 0.000000 -2.107309 -0.491705 0.000000 -1.685847 0.000000 0.000000 0.000000 0.000000 0.000000 0.000000 0.000000 0.000000 0.000000 0.000000 -0.655607 0.000000 0.000000 0.000000 0.000000 -0.655607 0.000000 0.000000 0.000000 -0.655607 0.000000 0.000000 0.000000 0.000000 0.000000 0.000000 0.000000 0.000000 0.000000 0.000000 0.000000 0.000000 0.000000 0.000000 0.000000 0.000000 0.000000
A0A0N9HTU1 2.170187 3.006464 2.313228 2.087030 2.176986 2.118933 2.429857 3.395053 3.610267 1.211267 2.086246 1.154522 1.359276 2.318458 3.036275 1.985568 1.280826 1.572922 0.886746 1.627052 0.841245 0.929109 1.924900 0.815095 2.915462 1.700795 1.515915 0.755473 0.917603 0.794437 2.094352 1.776107 1.697134 0.700035 1.623914 0.718863 2.989989 1.694519 2.178817 1.508593 0.802543 0.856412 0.750766 1.735052 0.684345 2.207582 0.879686 1.656602 0.667348 3.105049 1.312468 0.760703 0.758873 1.932745 0.719909 2.901864 1.219374 0.765410 0.739522 0.872887 0.685130 2.784189 1.747081 2.664684 1.366075 1.460738 0.701866 2.159727 1.273243 0.729062 0.754950 0.763057 0.787376 0.792606 2.979529 1.304361 2.207059 0.838630 2.142991 1.804349 1.446356 0.769594 2.846426 1.024033 2.192415 1.588612 1.832068 0.665517 0.771163 0.769333 0.843860 0.867657 2.910755 2.511706 2.984498 1.099345 1.695042 0.636752 2.124163 1.969878 1.795458 0.577653 1.749173 0.992915 1.909733 1.639081 1.538404 0.537121 0.887269 1.009651 0.879686 2.361867 1.622345 3.970614 0.584452 2.108212 1.055675 1.581813 0.543920 1.831022 2.162081 1.600379 0.521169 1.882799 1.542849 2.045975 2.815569 3.010909 2.486079 2.773206 3.340138 3.304574 0.640675 0.540520 1.956280 0.509140 0.639890 2.907878 0.515939 1.842005 2.089122 1.330773 0.537644 1.907641 1.133340 3.169640 0.571377 2.666253 0.705004 2.460452 2.269296 2.870222 1.395102 0.525876 2.043360 1.666016 1.299654 0.688006 2.770068 0.557779 2.289954 1.598287 1.270889 0.598835 1.389872 1.643004 4.219562 0.630738 3.625434 0.816403 3.171732 2.413121 1.488457 0.584452 1.946866 1.631759 1.228003 0.711280 2.284201 0.612694 2.502554 1.707071 1.388564 0.643813 1.754141 1.462307 3.106880 0.723832 3.039936 2.852179 2.527919 2.687434 1.547033 1.548864 0.648520 2.174894 0.836277 2.788112 1.824746 1.480874 0.746582 1.497087 2.618660 2.224841 1.508070 2.990512 0.852751 1.364245 2.280802 2.034207 3.324186 1.356661 2.339901 3.113156 1.815855 1.337833 2.433779 1.299393 2.620490 1.389872 2.469866 1.802780 2.016687 1.905549 1.475905 2.139330 1.324758 3.041766 2.964885 1.819516 1.315606 1.619730 1.302792 2.561653 2.085984 1.877308 1.584951 1.507808 1.515915 1.515392 4.362602 1.416283 1.777153 2.122856 1.545726 2.219349 1.650064 1.670723 1.827361 1.559062 1.777415 2.648732 2.688219 1.616069 2.666776 2.073694 2.081800 2.715153 2.280540 2.299891 0.000000 0.000000 -0.655607 0.000000 0.000000 0.000000 0.000000 0.000000 0.000000 0.000000 0.000000 0.000000 2.107309 0.000000 0.000000 1.245653 0.000000 -1.451701 2.107309 0.000000 2.107309 2.107309 0.000000 -2.107309 -0.655607 0.000000 0.000000 2.107309 0.000000 2.107309 0.000000 0.000000 0.000000 -2.107309 0.000000 -2.107309 -0.655607 0.000000 -0.655607 0.000000 0.000000 0.000000 0.000000 0.000000 -2.107309 0.000000 -2.107309 0.000000 -2.107309 -0.655607 0.000000 0.000000 0.000000 0.000000 -2.107309 0.000000 0.000000 0.000000 0.000000 0.000000 -2.107309 0.000000 0.000000 0.000000 0.000000 -2.107309 -2.107309 0.000000 0.000000 0.000000 0.000000 0.000000 0.000000 0.000000 0.000000 0.000000 0.000000 -2.107309 0.000000 0.000000 -2.107309 -2.107309 0.000000 0.000000 0.000000 0.000000 0.000000 0.000000 0.000000 0.000000 0.000000 0.000000 0.000000 0.000000 0.000000 0.000000 1.264385 0.000000 0.000000 0.000000 0.000000 0.000000 1.264385 0.000000 0.000000 0.000000 -3.348279 0.000000 0.000000 0.000000 0.000000 0.000000 0.000000 0.000000 0.000000 0.000000 0.000000 -3.348279 0.000000 0.000000 0.000000 -3.348279 0.000000 -3.156280 -3.348279 0.000000 0.000000 0.000000 0.000000 0.000000 0.000000 0.000000 0.000000 0.000000 0.000000 0.000000 0.000000 0.000000 0.000000 0.000000 0.000000 -3.156280 0.000000 0.000000 0.000000 0.000000 0.000000 -0.655607 0.000000 -0.655607 0.000000 -0.655607 -3.156280 0.000000 0.000000 0.000000 -3.156280 0.000000 0.000000 0.000000 -2.107309 0.000000 -3.156280 0.000000 0.000000 0.000000 0.000000 0.000000 -0.655607 0.000000 0.000000 0.000000 -3.156280 0.000000 0.000000 0.000000 -3.156280 0.000000 -0.655607 0.000000 -1.685847 0.000000 -3.156280 0.000000 0.000000 0.000000 0.000000 0.000000 0.000000 0.000000 -0.655607 0.000000 0.000000 1.245653 0.000000 0.000000 0.000000 0.421462 0.000000 -0.655607 0.000000 -0.655607 0.000000 0.000000 0.000000 -0.655607 0.000000 -0.655607 -0.655607 0.000000 0.000000 -0.655607 0.000000 0.421462 0.000000 -0.655607 0.000000 -0.655607 0.000000 -0.655607 -0.491705 0.000000 -1.685847 0.000000 -0.655607 0.000000 -0.655607 0.000000 -0.655607 0.000000 -0.655607 -0.655607 -0.655607 -2.107309 -1.685847 0.000000 -0.655607 0.000000 -0.655607 -0.655607 0.000000 -0.655607 -0.655607 0.000000 0.000000 -1.685847 0.000000 -0.655607 0.000000 0.000000 -0.655607 -2.107309 0.000000 0.000000 0.000000 0.000000 0.000000 0.000000 0.000000 0.000000
A0A0S1TP26 1.988968 3.218279 2.037868 2.096183 2.582311 1.965433 2.653701 3.509067 1.951573 1.894828 2.707570 1.932222 1.828146 1.701841 2.093306 2.881467 2.346700 1.594103 1.593319 2.532888 1.285533 1.898227 1.844359 1.427789 1.563246 2.210458 1.462046 1.167858 1.484535 1.222773 1.606394 3.714344 1.610055 1.107713 1.499963 1.108498 1.672030 2.469605 1.494472 1.751526 1.119481 1.485058 0.968334 1.568476 1.088362 1.487673 1.752834 1.478520 1.073457 1.598287 1.647711 1.005205 0.867134 1.668108 1.212313 1.526898 1.558801 2.251775 0.817972 1.570045 0.790776 1.312729 3.243121 1.648757 1.563246 1.617377 0.888838 2.488956 1.626006 0.870010 0.991869 0.781885 1.024033 0.725662 2.473789 1.682752 2.156066 1.168120 1.239509 2.531319 1.456293 0.741091 2.846426 1.134125 1.937975 1.923854 1.673338 0.871056 0.935647 0.855366 0.964411 0.734815 1.088885 0.719125 2.236085 1.697919 1.856126 1.020895 1.284226 2.254913 1.628360 0.771686 2.467251 1.061951 1.881753 2.053558 2.089122 1.049399 0.978271 1.002590 0.842814 1.168643 0.763841 3.038105 0.771686 2.477711 1.663401 2.208889 1.030571 1.909733 2.405014 2.337547 0.921526 2.515890 2.300937 2.495493 3.584379 3.421203 3.553260 1.168904 1.187209 3.699177 0.901652 0.974610 2.095660 1.119219 1.104052 3.029476 1.061166 3.220632 2.330487 2.712538 1.088885 2.394554 1.208652 4.778648 1.281349 3.345891 1.756233 4.712750 1.738974 1.685628 4.039127 0.944537 2.551193 1.864233 2.166526 1.149030 2.695541 0.953428 2.858978 1.896920 2.292831 0.988992 2.096967 1.438772 3.899224 1.899535 4.368355 1.784475 2.139592 1.722500 2.590156 0.920480 3.021108 1.834683 2.202090 1.982430 2.590418 1.010958 3.099558 1.939283 2.955994 1.068227 2.453392 1.744466 3.575749 2.398738 5.229997 2.345392 2.169664 2.775037 1.975893 2.603231 1.084701 2.519551 1.804611 2.530011 1.880707 1.599595 2.230855 4.012454 2.825768 3.026076 2.021394 1.548341 2.481372 5.229997 3.864445 2.168095 1.947651 1.357184 3.759322 1.582597 1.979031 1.444264 3.312680 1.732698 5.229997 5.229997 1.989752 1.869986 1.930392 2.500200 1.390395 2.145345 1.401378 3.731865 1.485058 1.991844 1.837821 5.229997 1.602471 4.308472 1.967263 2.455222 1.490026 1.958895 5.229997 1.533174 4.803229 1.581813 5.229997 1.901627 2.186139 2.478496 2.298061 2.473266 1.771400 3.022154 1.594888 2.623105 2.487910 2.472743 2.078401 2.029500 1.882538 2.215427 2.166526 2.131485 0.000000 0.000000 0.000000 -2.257162 0.000000 1.128581 -0.655607 0.000000 1.128581 1.128581 0.000000 -2.257162 1.128581 -0.655607 0.000000 0.000000 0.000000 -2.107309 0.000000 0.000000 0.000000 1.128581 0.000000 0.000000 0.000000 0.000000 0.000000 0.000000 -2.107309 0.000000 0.000000 0.000000 0.000000 0.000000 0.000000 0.000000 0.000000 0.000000 0.000000 -3.156280 2.107309 -2.107309 2.107309 0.000000 2.107309 0.000000 -3.156280 0.000000 0.000000 0.000000 -3.156280 2.107309 2.107309 0.000000 0.000000 0.000000 -3.156280 0.000000 2.107309 0.000000 -2.107309 0.000000 -3.156280 0.000000 -3.156280 0.000000 -2.107309 0.000000 -3.156280 2.107309 0.000000 2.107309 0.000000 -2.107309 0.000000 0.000000 0.000000 -3.156280 0.000000 0.000000 -2.107309 -2.107309 0.749265 1.245653 1.128581 0.000000 2.107309 -2.107309 0.000000 2.107309 0.000000 -2.107309 0.000000 -2.107309 1.128581 1.245653 0.749265 1.245653 0.000000 0.000000 -2.107309 -2.107309 0.749265 1.245653 1.128581 1.245653 0.000000 1.245653 0.000000 0.000000 -2.107309 0.000000 -2.107309 0.000000 -2.107309 0.000000 1.245653 0.749265 1.245653 0.000000 0.000000 0.000000 -2.107309 -1.451701 -3.348279 1.128581 -0.655607 -0.655607 0.000000 0.000000 0.000000 0.000000 -2.107309 -2.107309 1.245653 1.245653 1.245653 0.000000 1.245653 0.000000 0.000000 -3.156280 1.245653 0.000000 1.245653 0.000000 0.000000 -0.655607 -0.655607 0.000000 -0.655607 -0.655607 -0.655607 1.245653 -2.107309 1.245653 0.000000 1.245653 -0.655607 0.000000 -0.468291 0.000000 0.000000 1.245653 0.000000 1.245653 0.000000 0.000000 0.000000 -0.655607 -0.655607 -0.655607 -0.655607 0.000000 -1.685847 0.000000 0.000000 1.245653 -0.655607 0.000000 -1.685847 0.000000 0.000000 1.245653 0.000000 1.245653 0.000000 -0.655607 0.000000 -0.655607 -0.655607 -1.685847 0.000000 0.000000 0.000000 -2.107309 0.000000 0.421462 0.000000 0.000000 -2.107309 0.000000 0.000000 -0.491705 0.000000 0.000000 2.107309 0.000000 -2.107309 0.000000 -1.685847 0.000000 0.000000 0.000000 -1.451701 0.000000 -2.107309 0.000000 0.000000 0.000000 -1.685847 -1.451701 -1.685847 0.000000 0.000000 0.000000 0.000000 -0.655607 0.000000 0.000000 0.000000 0.000000 0.000000 -0.655607 -1.685847 0.000000 0.000000 0.000000 0.000000 0.000000 -0.655607 0.000000 0.000000 0.000000 0.000000 -1.685847 -2.107309 0.000000 0.000000 0.000000 0.000000 0.000000 0.000000 0.000000 0.000000 0.000000 0.000000 0.000000 0.000000 0.000000
A0A0S1TQ04 2.297538 2.875975 2.104289 2.153451 3.531033 2.430641 2.386971 2.223272 2.865254 1.328158 2.266681 1.215451 2.331010 2.398215 2.260405 1.824746 1.255984 1.683798 1.100391 1.933007 1.203161 1.241078 1.795458 1.223558 1.699488 5.015306 0.866349 0.883608 0.856151 0.927017 1.696873 1.589658 1.638558 0.877332 1.795458 0.877071 1.985568 1.742112 1.660263 1.687197 0.625508 0.562225 0.844383 0.586283 0.830785 1.625222 1.648495 0.866088 0.784238 1.652156 1.645096 0.530322 0.622631 1.766693 0.828693 1.592534 0.953951 0.519600 0.841507 0.562225 0.793391 2.688742 1.826054 1.726684 0.928325 0.906359 0.791560 1.685105 0.905574 0.552811 0.513847 0.847521 0.528230 0.911327 3.105834 0.852490 1.938760 0.902698 2.182739 1.000760 0.622108 0.849875 1.985307 0.880209 2.269296 0.871579 1.656079 0.916819 0.564840 0.812219 0.551503 0.946106 0.602757 1.729822 2.118410 0.852228 1.678568 1.002067 2.076570 1.040769 1.640650 1.820301 1.794151 0.876809 1.965956 0.925448 1.512515 0.940877 1.135955 0.789730 1.021157 0.808296 1.162105 1.055675 1.797289 2.215688 0.907143 1.566646 0.806989 1.825269 1.309068 1.600118 1.027171 1.429620 1.456031 1.964387 3.831234 3.660475 3.841171 2.241838 1.957326 2.317150 2.535241 1.990275 1.009389 0.829216 0.712064 3.859999 0.955520 1.834945 1.299393 1.280826 0.692713 1.935099 0.736645 4.479754 1.930130 3.262734 2.143253 3.605299 2.382264 2.987897 1.350647 0.766195 2.111873 1.263306 1.254415 0.669963 1.833899 2.041268 2.620752 1.671769 1.270889 0.691144 1.754403 0.737168 2.363697 2.043360 2.989205 2.371281 2.728490 2.610553 1.549125 0.956043 2.148483 1.603517 1.297562 0.710495 1.654510 2.079970 2.079447 1.762509 1.560370 0.812742 1.854034 1.528728 2.467774 5.229997 3.074454 3.003326 3.478210 2.365528 1.543895 1.583382 2.024793 2.146129 1.997074 2.238700 1.936145 2.422012 2.731366 3.141659 2.661546 2.884082 1.714393 1.603517 2.221703 3.277901 3.400806 1.902673 3.816590 1.440603 2.650301 2.814523 1.871293 1.435896 2.717768 1.873124 2.673575 3.535217 2.004658 1.767739 1.894305 1.829453 1.425174 1.702103 1.355615 2.640887 1.482181 1.616331 1.778984 4.159417 1.568999 4.318670 1.925946 1.798335 1.416283 1.477474 2.076832 1.490549 4.403135 1.695565 5.229997 1.984784 1.516961 2.094091 1.629929 5.229997 1.670984 1.594888 1.609793 2.490263 2.551454 1.727730 2.277141 2.451823 1.965694 2.312182 2.163911 2.260928 -0.655607 0.000000 -0.655607 0.000000 0.000000 0.000000 0.000000 0.000000 0.000000 0.000000 0.000000 0.000000 0.000000 0.000000 -3.371694 -2.257162 0.000000 0.000000 0.000000 0.000000 2.107309 0.000000 0.000000 0.000000 -2.257162 -0.655607 0.000000 0.000000 0.000000 0.000000 1.128581 0.000000 0.000000 0.000000 0.000000 -2.107309 -2.257162 -3.156280 1.128581 -2.107309 0.000000 0.000000 0.000000 0.000000 0.000000 1.128581 -2.107309 0.000000 0.000000 1.128581 -3.156280 0.000000 0.000000 0.000000 -2.107309 1.128581 -3.156280 0.000000 0.000000 0.000000 0.000000 0.000000 -3.156280 1.128581 1.245653 0.000000 -2.107309 1.128581 1.245653 0.000000 0.000000 0.000000 0.000000 0.000000 1.128581 1.245653 1.264385 1.245653 0.000000 1.245653 0.000000 0.000000 1.264385 1.245653 0.000000 1.245653 0.000000 1.245653 0.000000 0.000000 0.000000 0.000000 0.000000 0.000000 0.000000 1.245653 1.264385 1.245653 0.000000 1.245653 0.000000 0.000000 1.264385 1.245653 0.000000 1.245653 -3.348279 0.000000 0.000000 0.000000 0.000000 0.000000 0.000000 0.000000 0.000000 0.000000 1.245653 -3.156280 0.000000 0.000000 1.245653 -3.348279 0.000000 -3.156280 -3.156280 0.000000 0.000000 0.000000 0.000000 0.000000 0.000000 0.000000 0.000000 0.000000 1.245653 0.000000 1.245653 1.245653 0.000000 0.000000 1.245653 -3.156280 0.000000 0.000000 1.245653 0.000000 -3.348279 0.000000 -3.348279 1.245653 0.000000 0.000000 1.245653 0.000000 0.000000 1.245653 -3.156280 0.000000 1.245653 0.000000 -1.685847 1.245653 1.245653 0.000000 0.000000 1.245653 -0.655607 -3.348279 1.245653 0.000000 -3.156280 0.000000 1.245653 0.000000 0.000000 1.245653 1.245653 0.000000 0.000000 -3.156280 -1.685847 0.000000 1.245653 0.000000 0.000000 0.000000 -0.655607 0.000000 1.245653 0.000000 0.000000 -1.685847 0.000000 0.000000 -3.156280 1.245653 0.000000 -1.685847 0.000000 -0.655607 -3.156280 -2.107309 0.000000 0.000000 0.000000 0.000000 -2.107309 0.000000 0.000000 0.000000 0.046829 0.000000 0.000000 0.000000 0.000000 0.000000 0.000000 0.000000 0.000000 0.000000 -1.685847 0.000000 -1.685847 0.000000 0.000000 0.000000 0.000000 0.000000 0.000000 0.000000 0.000000 -0.655607 0.000000 0.000000 -1.685847 0.000000 0.000000 0.000000 0.000000 0.000000 0.000000 0.000000 0.000000 0.000000 0.000000 -1.685847 0.000000 0.000000 0.000000 0.000000 0.000000 -2.107309 0.000000 0.000000 0.000000 0.000000 0.000000 0.000000 0.000000 0.000000
A0A0S2IHL2 3.598761 2.596955 2.445808 2.242884 3.029476 2.460714 2.623105 2.335455 3.038890 2.223272 3.213833 1.530820 2.529750 1.975370 2.454176 3.074977 3.320525 3.316603 1.497348 2.049113 1.477474 2.043098 2.000997 1.465707 4.111824 2.412075 1.877569 1.166812 1.020634 1.318744 2.073694 1.899273 1.924639 1.180672 1.942159 1.183287 2.747841 1.782122 2.175417 1.851681 0.720694 0.759919 0.797313 1.019849 1.075549 2.231378 1.971447 2.055127 1.033970 2.766669 1.742897 0.679638 0.689052 2.606631 1.111897 3.853200 1.002329 0.766456 0.840199 1.131510 1.061951 2.380956 1.872862 2.869961 0.935647 1.488719 1.060382 2.536549 1.004944 0.685914 0.722001 0.750505 0.905313 1.122357 2.439532 0.904528 1.590442 1.000237 2.542040 2.045452 1.235325 1.200284 2.402661 0.904267 2.561391 0.981932 1.485058 1.578152 0.813265 0.852490 0.929632 1.161582 1.152168 1.329727 2.507784 0.920218 1.564554 0.966242 1.787090 2.530011 1.125495 1.151645 2.457837 0.957612 1.925423 1.145892 1.330511 0.901390 1.774800 1.212313 1.836514 1.363722 2.450515 1.140139 1.985830 2.206274 1.004682 2.641149 0.781100 1.980338 2.441101 1.194531 0.936693 1.326589 1.358230 2.064280 1.206037 1.293901 3.227170 1.763555 1.734529 1.812456 2.233470 1.152953 1.198454 0.761226 0.795221 1.291809 0.842814 2.110827 1.733221 1.322928 0.728800 1.740282 1.124188 1.343848 5.229997 2.973776 1.983215 2.379910 1.757802 1.955496 1.492903 0.756258 2.088861 1.734267 1.242647 0.792345 2.584926 1.113728 2.715415 1.755710 1.304623 0.772994 1.493426 1.547033 3.571827 2.142207 4.893970 2.577604 3.758538 1.909472 1.598549 0.910804 1.749173 1.525590 1.336526 1.777415 2.584142 1.813240 2.803017 1.859003 1.389087 1.858480 1.766170 1.488980 3.459120 2.440317 3.647400 2.336763 2.897680 2.337809 1.628098 2.510922 1.771662 1.929084 1.846451 2.594602 2.060619 2.791773 2.157897 4.162816 2.283417 2.286555 1.735313 5.229997 2.093829 3.545415 3.032091 1.663662 2.234516 2.750717 1.338356 2.231640 1.160013 3.007248 2.214904 3.991011 4.196811 4.310041 2.281586 1.291025 4.087504 1.735575 4.102148 1.094115 2.663376 1.117650 2.942658 1.096207 5.229997 5.229997 5.229997 4.159155 4.011931 1.341494 3.657076 1.042600 3.440292 5.069436 1.048091 3.475333 5.229997 3.217756 1.111636 2.564529 1.462307 3.250705 3.387992 1.024295 3.201804 1.143539 3.167548 1.479043 2.557207 1.532389 2.197122 1.811671 2.817138 1.999689 1.245653 0.000000 -0.655607 0.000000 0.000000 0.000000 0.000000 -0.655607 0.000000 0.000000 0.000000 0.000000 0.000000 -0.655607 -0.655607 -0.655607 0.000000 0.000000 -1.451701 0.000000 0.000000 0.000000 0.000000 0.000000 -0.655607 -3.348279 0.000000 0.000000 0.000000 0.000000 -0.655607 0.000000 0.000000 2.107309 -0.655607 -2.107309 0.000000 -3.156280 -0.655607 1.245653 0.000000 0.000000 0.000000 0.000000 0.000000 -0.655607 -3.156280 0.000000 0.000000 0.000000 1.245653 0.000000 0.000000 0.000000 1.245653 0.000000 -3.156280 0.000000 0.000000 0.000000 0.000000 0.000000 0.000000 0.000000 1.245653 0.000000 0.000000 0.000000 1.245653 0.000000 0.000000 0.000000 0.000000 0.000000 -3.348279 1.245653 0.000000 1.245653 0.000000 1.245653 0.000000 0.000000 0.000000 1.245653 0.000000 1.245653 -3.371694 1.245653 0.000000 0.000000 0.000000 0.000000 0.000000 0.000000 0.000000 1.245653 0.000000 1.245653 0.000000 1.245653 -3.371694 0.000000 0.000000 1.245653 0.000000 1.245653 -3.371694 0.000000 0.000000 0.000000 0.000000 -3.371694 0.000000 -3.371694 0.000000 0.000000 1.245653 1.358043 1.245653 0.000000 1.245653 -3.371694 0.000000 0.000000 -3.371694 0.000000 -3.371694 -3.371694 -0.655607 -0.655607 -0.655607 -0.655607 -0.655607 0.000000 1.245653 0.000000 1.245653 -3.371694 0.000000 0.000000 1.245653 0.000000 0.000000 0.000000 1.245653 -3.371694 0.000000 -3.371694 -0.655607 -0.655607 -0.655607 -0.655607 0.000000 0.000000 0.000000 1.245653 0.000000 1.245653 -3.371694 0.000000 -0.655607 0.000000 0.000000 0.000000 0.000000 1.245653 -2.107309 0.000000 0.000000 -0.655607 0.000000 -0.655607 0.000000 0.000000 0.000000 0.000000 0.000000 0.000000 -3.371694 0.000000 -1.685847 0.000000 0.000000 0.000000 0.000000 0.000000 0.000000 0.000000 0.000000 0.000000 0.000000 0.000000 0.000000 -2.107309 0.000000 0.000000 0.000000 -1.685847 0.000000 -1.685847 -2.107309 0.000000 -2.107309 0.000000 0.000000 0.000000 0.000000 0.000000 0.000000 0.000000 -3.348279 -1.685847 0.000000 -1.685847 0.000000 0.046829 0.000000 0.000000 -2.257162 0.000000 2.107309 0.000000 0.000000 0.000000 0.000000 0.000000 -1.685847 0.000000 0.000000 0.000000 0.000000 0.000000 -1.685847 0.000000 2.107309 0.000000 0.000000 0.000000 -0.655607 -2.107309 0.000000 -0.655607 0.000000 -2.107309 0.000000 -1.685847 0.000000 -0.655607 0.000000 0.000000 -0.655607 0.000000 0.000000 0.000000 0.000000 0.000000 0.000000 0.000000 0.000000 0.000000
A0A0S2II38 1.968048 2.394554 2.278971 3.455198 1.991321 1.960987 2.801187 1.895351 2.043098 1.579721 2.748102 1.412361 2.058004 2.690572 1.838344 1.873908 1.464922 1.651895 1.050445 2.199475 1.273243 1.316129 2.025839 1.270105 1.740543 2.132793 1.535004 0.854843 1.520099 0.888315 1.573706 1.908949 1.699226 0.850136 1.696088 0.855889 2.147960 2.087553 1.685628 2.252821 0.821894 0.829478 0.811173 0.900344 0.798098 1.626268 1.950266 1.594626 0.757304 2.326041 1.758587 0.765149 0.757042 2.355329 0.803589 2.244453 1.846712 0.804897 0.808296 0.969903 0.760180 1.918624 1.839652 2.331010 2.233993 1.811148 0.760965 2.366051 1.789705 0.738999 0.785284 0.768025 0.908189 0.853797 2.354806 0.961535 2.795695 0.868180 1.954188 2.120764 1.521406 0.806466 3.249659 0.894068 2.315058 1.007820 2.028977 0.868180 0.797575 0.787638 0.940092 0.853013 1.621561 1.533174 2.396646 0.868703 5.229997 0.941138 2.641410 2.083369 2.119718 1.935099 5.229997 0.858504 2.557207 0.955259 4.161509 1.486365 0.841507 1.867632 0.840199 2.552239 1.538927 2.790204 2.108996 4.078613 0.878901 4.107901 0.965196 3.699439 2.426719 2.888266 1.263829 4.206748 3.720620 2.855578 2.606108 2.547270 2.575512 1.639081 1.728253 2.991035 2.373111 1.970140 1.134648 0.980101 0.926233 3.129630 1.029263 2.817400 2.924614 4.410457 0.898775 3.752785 1.013835 2.735027 2.599047 3.795147 4.037296 2.798310 3.249397 3.570519 4.373062 0.876025 2.793342 1.231664 4.838009 0.870533 3.299344 1.025864 2.387755 1.784214 4.278399 0.794437 3.416757 1.144323 3.782857 5.229997 4.342990 4.210409 2.749410 4.140066 4.158632 0.833662 2.024009 1.746296 3.569735 0.825294 2.980314 2.285247 1.929084 1.899796 4.152879 0.808035 5.229997 1.701318 3.081776 3.346675 2.904740 2.860547 3.140352 1.971186 1.659217 4.358941 0.965719 5.229997 0.942968 1.967786 2.151098 3.017185 2.786281 3.293329 2.982406 5.229997 2.030285 2.354545 2.316366 5.229997 3.011955 1.935622 2.043621 1.785783 1.675953 2.459145 1.492641 1.914440 1.700011 2.095921 5.229997 5.229997 2.811908 1.897704 2.766669 1.936145 1.914440 1.435634 1.827100 1.186948 3.450491 1.428574 1.993675 4.681109 1.824746 1.175442 3.209649 1.778461 1.968832 1.175703 4.271862 2.175417 1.138047 4.529178 1.203945 4.051940 1.245524 2.856363 1.747865 3.559275 3.439769 1.146415 3.298559 1.203422 2.464898 1.195316 2.922522 1.291548 2.397954 2.263020 2.572113 2.266419 -0.655607 -0.655607 -0.655607 0.000000 -0.655607 -0.655607 -0.655607 -0.655607 -0.655607 0.000000 0.000000 0.000000 -0.655607 0.000000 -0.655607 0.000000 0.000000 -2.107309 2.107309 0.000000 2.107309 0.000000 0.000000 0.000000 0.000000 -3.348279 0.000000 2.107309 0.000000 0.000000 0.000000 0.000000 0.000000 2.107309 0.000000 -2.107309 0.000000 -3.348279 0.000000 0.000000 0.000000 0.000000 0.000000 0.000000 2.107309 0.000000 -2.107309 0.000000 -2.107309 0.000000 0.000000 0.000000 0.000000 0.000000 -2.107309 0.000000 0.000000 0.000000 0.000000 0.000000 0.000000 0.000000 0.000000 0.000000 -3.156280 0.000000 -2.107309 1.128581 0.000000 0.000000 0.000000 0.000000 0.000000 0.000000 1.128581 -3.156280 2.107309 -2.107309 0.000000 0.000000 -2.107309 -2.107309 0.000000 1.245653 1.128581 1.245653 2.107309 -2.107309 0.000000 0.000000 0.000000 0.000000 0.000000 0.000000 1.128581 1.245653 0.749265 1.245653 1.128581 1.245653 0.000000 0.000000 0.000000 1.245653 1.128581 1.245653 0.000000 1.245653 0.000000 0.000000 0.000000 0.000000 0.000000 0.000000 0.000000 0.000000 1.245653 -3.156280 1.245653 0.000000 1.245653 -0.655607 1.245653 0.000000 0.000000 0.000000 -0.655607 -0.655607 0.000000 0.000000 0.000000 0.000000 0.749265 0.000000 1.245653 1.245653 1.245653 -0.655607 0.000000 0.000000 1.245653 0.000000 1.245653 0.000000 1.245653 -0.655607 0.000000 -0.655607 0.000000 0.000000 0.000000 0.000000 1.245653 0.000000 0.000000 1.245653 0.000000 1.245653 -0.655607 0.000000 -1.685847 1.245653 1.245653 1.245653 -2.107309 1.245653 0.000000 1.128581 0.000000 0.000000 0.000000 0.000000 0.000000 0.000000 -1.685847 1.245653 1.245653 1.245653 0.000000 0.000000 -1.685847 0.000000 -2.107309 0.000000 0.000000 1.245653 0.000000 0.000000 0.000000 0.000000 0.000000 -1.685847 1.245653 1.358043 0.000000 -3.156280 0.000000 -1.685847 0.000000 0.000000 0.000000 0.000000 0.000000 0.000000 0.000000 -0.468291 0.000000 0.000000 0.000000 0.000000 0.000000 -0.655607 0.000000 -0.468291 0.000000 -0.655607 0.000000 -0.655607 0.000000 0.000000 0.000000 0.000000 0.000000 0.000000 -0.655607 0.000000 -0.655607 0.000000 0.000000 0.000000 -0.655607 -0.655607 -0.655607 0.000000 0.000000 0.000000 -0.655607 0.000000 -0.655607 -0.655607 0.000000 -0.655607 0.000000 -2.107309 0.000000 -1.685847 0.000000 0.000000 0.000000 0.000000 -0.655607 0.000000 0.000000 0.000000 0.000000 0.000000 0.000000 0.000000 2.107309 0.000000
A0A0U2U8U5 2.018256 2.093306 2.461498 2.866561 2.040745 2.005442 3.354259 3.139044 1.732437 1.053321 2.639841 1.343848 1.341233 3.156826 2.155805 1.998905 1.351954 1.484012 0.874456 1.531343 0.863734 0.929371 1.791797 0.861642 3.182715 2.383310 0.843337 0.810911 0.814311 0.788422 1.876785 0.902175 1.630452 0.801236 1.497348 0.782931 1.911302 2.237916 1.776892 3.028430 0.735076 0.784238 0.745536 0.842291 0.814311 1.528990 0.861381 1.591750 0.771425 2.048328 1.833376 0.739260 0.719648 1.874170 0.795744 1.450017 1.032401 0.836800 0.765410 1.424651 0.856674 1.947651 1.920716 1.385426 0.964673 1.513038 0.832093 1.746296 0.932770 0.754689 0.830001 0.754950 1.466753 0.832616 1.481135 0.857720 1.662093 0.953951 1.496564 1.031355 1.426482 1.879661 1.494733 0.871841 1.311160 0.865826 1.883584 1.487673 0.940092 0.781100 1.866063 0.805158 1.663139 1.515915 1.345155 0.833139 4.516364 1.053060 1.364506 1.006513 2.034992 1.975108 1.650587 0.891453 1.298347 0.887008 3.753308 0.956566 1.555140 2.065326 1.623391 3.070793 2.343823 3.371779 1.875477 1.475644 0.897991 2.458360 0.837846 1.558278 2.426196 2.918338 1.008866 1.811671 2.498108 1.900581 3.302482 3.122831 2.898987 1.860310 1.644050 2.815831 2.426196 1.174134 1.039200 0.835492 0.792868 2.692926 0.912896 3.604253 1.963864 2.520336 0.720955 1.890905 0.912635 3.237891 2.309567 2.970377 2.894803 2.997311 3.273194 2.756470 2.621013 0.752858 2.296492 1.214667 2.333625 0.712326 3.750693 1.006774 2.045452 1.737144 2.707308 0.703696 2.353237 0.830785 3.663352 2.151882 4.407842 5.229997 2.609507 2.817400 4.776556 0.791560 2.157897 1.530036 2.288385 0.739783 3.174608 2.164173 1.958895 1.803826 2.218826 0.780054 2.461760 1.545464 2.908924 2.258836 3.064517 5.229997 2.750717 3.997025 1.541542 4.046972 2.061142 2.333102 1.873124 5.229997 1.993413 2.977176 1.606655 2.463852 1.608224 2.848779 1.832853 2.325780 2.039699 3.875428 3.578103 1.882015 2.688480 1.731391 1.500748 2.540733 1.353523 1.808795 1.429097 1.786044 2.880944 2.714369 2.603754 1.756495 2.926445 1.870247 1.925162 1.270366 1.780814 1.117912 3.423295 1.318482 1.910518 1.040769 1.826315 0.988469 3.825481 1.754141 1.861879 1.067704 1.057244 2.510922 0.988469 3.545938 0.966242 1.836514 1.162890 2.518505 1.661309 1.105883 1.780291 1.005205 3.410481 1.004159 1.721977 1.076072 1.140401 1.067704 2.179078 2.275833 1.224865 2.266681 -0.655607 -0.655607 -0.655607 0.000000 -0.655607 -0.655607 -0.655607 0.000000 -2.107309 2.107309 0.000000 2.107309 0.000000 0.000000 -0.655607 0.000000 0.000000 0.000000 0.000000 0.000000 2.107309 0.000000 0.000000 2.107309 0.000000 -3.348279 0.000000 0.000000 0.000000 0.000000 0.000000 -2.107309 0.000000 2.107309 0.000000 -2.107309 0.000000 0.000000 0.000000 0.000000 0.000000 0.000000 0.000000 0.000000 0.000000 0.000000 -2.107309 0.000000 -2.107309 0.000000 0.000000 0.000000 0.000000 0.000000 -2.107309 -3.371694 -3.156280 0.000000 0.000000 0.000000 0.000000 0.000000 0.000000 -3.371694 1.245653 0.000000 -2.107309 -3.371694 -3.156280 0.000000 0.000000 0.000000 0.000000 0.000000 -3.371694 1.245653 -3.371694 1.245653 -2.107309 1.245653 -2.107309 0.000000 -3.371694 1.245653 -2.107309 1.245653 2.107309 1.245653 0.000000 0.000000 0.000000 0.000000 -2.107309 0.000000 -2.107309 1.245653 -3.371694 1.245653 -2.107309 1.245653 0.000000 0.000000 1.358043 1.245653 -2.107309 1.245653 0.000000 1.245653 0.000000 0.000000 0.000000 0.000000 -3.348279 -0.655607 0.749265 -2.107309 1.245653 1.245653 1.245653 -2.107309 1.245653 1.245653 0.000000 0.000000 1.245653 0.000000 0.000000 0.000000 -0.655607 0.000000 0.000000 0.000000 0.749265 0.000000 1.245653 0.000000 1.245653 1.245653 0.000000 -2.107309 1.245653 1.245653 0.000000 0.000000 1.245653 0.000000 0.000000 -0.655607 0.000000 -0.655607 0.000000 0.000000 1.245653 0.000000 0.000000 1.245653 0.000000 1.245653 0.000000 0.000000 -1.685847 1.245653 0.000000 0.000000 0.000000 1.245653 0.000000 0.000000 0.000000 0.000000 0.000000 0.000000 0.000000 0.000000 -1.685847 1.245653 0.000000 0.000000 0.000000 0.000000 -1.685847 0.000000 1.245653 0.000000 0.000000 1.245653 0.000000 0.000000 0.000000 0.000000 0.000000 0.000000 0.000000 0.000000 0.000000 1.245653 0.000000 1.245653 0.000000 0.000000 0.000000 -0.655607 0.000000 0.000000 0.000000 -0.468291 0.000000 0.000000 0.000000 0.000000 1.245653 -0.655607 0.000000 -0.468291 0.000000 -0.655607 0.000000 -0.655607 0.000000 -2.861257 -3.156280 0.000000 1.245653 0.000000 -0.655607 0.000000 -0.655607 0.000000 0.000000 0.000000 -0.655607 0.000000 -0.655607 0.000000 0.000000 0.000000 -3.371694 0.000000 0.000000 -3.371694 0.000000 0.000000 0.000000 -3.371694 0.000000 -1.685847 0.000000 0.000000 -3.371694 0.000000 0.000000 0.000000 -3.371694 0.000000 0.000000 0.000000 -3.371694 0.000000 0.000000 0.000000
A0A0Y0GRS3 2.101413 3.246521 2.062188 2.012764 2.610553 1.946605 2.937166 3.414927 1.928823 1.927777 2.826291 1.955234 1.858741 1.739759 1.880446 2.075263 1.900581 1.555140 1.317175 1.671246 1.203684 1.945820 1.840175 1.170473 1.589919 1.831545 1.469106 1.149815 1.517484 1.145108 1.666800 2.046498 1.629667 1.084701 1.484012 1.099868 1.642481 2.018779 1.520622 1.668631 0.970949 1.555924 0.904528 1.621561 0.911850 1.531866 1.649018 1.551479 1.119481 1.602471 1.599856 0.951598 0.844645 1.786306 1.635420 1.544157 1.551217 1.098561 0.770640 1.526375 0.752858 1.373920 1.872862 2.574466 1.588350 1.538404 0.832616 2.493140 1.623914 0.869749 0.964673 0.764626 0.986639 0.715987 2.468297 1.759371 1.980861 1.075026 1.271412 2.574205 1.459169 0.735076 2.855055 1.056982 1.953927 1.896658 1.647188 0.868703 0.926494 0.874979 0.969380 0.745536 1.091500 0.730108 3.514035 1.684059 1.848020 0.990038 1.348032 2.346961 2.121025 0.794437 2.412075 1.031355 1.888552 2.113965 2.169141 1.042077 1.003113 1.024818 0.926756 3.956231 0.808296 3.125185 0.818233 2.493924 1.307238 2.206536 1.029002 1.898227 2.346438 2.359252 1.185117 2.499154 2.321596 2.509353 3.569996 3.384854 3.521619 1.222773 1.241601 1.899535 1.793889 1.202115 2.080493 1.048614 1.080517 3.049611 0.955259 2.588064 2.310613 2.703386 1.049922 2.364220 1.199238 4.711443 1.168643 3.395314 1.716224 4.691569 1.674645 1.616331 3.049350 0.901390 2.536810 1.811933 2.147175 1.158444 2.634873 0.911850 2.860024 1.851158 2.288908 0.974871 2.081016 1.885937 3.435062 1.899273 4.233683 1.756233 2.040745 1.669415 2.552239 0.907143 2.881728 1.816640 2.193722 1.913656 2.543609 1.009389 2.985282 1.911564 2.941350 1.252846 2.444239 1.699749 3.521096 2.478496 5.229997 2.284463 2.078401 3.002803 1.976416 2.591725 2.467774 2.483987 1.788921 2.521382 1.872601 1.513561 2.185877 3.958062 2.798833 3.036798 2.091737 1.526375 2.412075 5.229997 3.953093 2.170972 1.958111 1.351170 4.124376 1.575537 1.927777 1.455770 4.118100 1.723807 5.229997 5.153901 1.980338 1.844620 1.942421 2.576297 1.389349 2.070817 1.402947 3.711206 1.488980 1.985045 1.845666 5.229997 1.581813 5.229997 1.976154 2.434041 1.505455 1.928300 5.229997 1.527159 4.888740 1.559847 5.229997 1.913394 2.231901 2.457837 2.307998 2.364482 1.880707 3.006464 1.619992 2.580219 2.510660 2.515629 2.050159 2.004658 1.976416 2.204182 2.201044 2.142468 0.000000 0.000000 0.000000 -2.257162 0.000000 1.128581 -0.655607 2.107309 1.128581 0.000000 0.000000 0.000000 1.128581 -0.655607 1.128581 0.000000 1.128581 -2.107309 0.000000 0.000000 0.000000 0.000000 0.000000 0.000000 0.000000 1.128581 -2.107309 0.000000 -1.451701 2.107309 0.000000 0.000000 0.000000 0.000000 0.000000 0.000000 0.000000 1.128581 0.000000 -3.156280 2.107309 0.000000 2.107309 0.000000 2.107309 0.000000 -3.156280 0.000000 -2.107309 0.000000 -3.156280 2.107309 2.107309 0.000000 0.000000 0.000000 -3.156280 0.000000 2.107309 0.000000 -2.107309 0.000000 -3.156280 0.000000 0.000000 0.000000 -2.107309 0.000000 -3.156280 2.107309 0.000000 2.107309 0.000000 -2.107309 0.000000 0.000000 2.107309 1.245653 0.000000 0.000000 -2.107309 -2.107309 0.749265 1.245653 1.128581 0.000000 -2.107309 -2.107309 0.000000 0.000000 0.000000 -2.107309 0.000000 -2.107309 1.128581 1.245653 0.000000 1.245653 0.000000 0.000000 -2.107309 -2.107309 0.749265 1.245653 1.128581 1.245653 0.000000 1.245653 0.000000 0.000000 0.000000 0.000000 -2.107309 0.000000 -2.107309 0.000000 1.245653 0.749265 1.245653 0.000000 0.000000 0.000000 1.245653 -1.451701 -3.348279 1.128581 -0.655607 -0.655607 0.000000 0.000000 0.000000 -0.655607 -0.655607 1.245653 1.245653 1.245653 1.245653 0.000000 1.245653 0.000000 0.000000 -3.156280 1.245653 0.000000 1.245653 0.000000 0.000000 -0.655607 -0.655607 0.000000 -0.655607 -0.655607 -0.655607 1.245653 2.107309 1.245653 0.000000 1.245653 -0.655607 0.000000 -0.468291 0.000000 0.000000 1.245653 0.000000 1.245653 0.000000 0.000000 0.000000 -0.655607 -0.655607 -0.655607 -0.655607 0.000000 -1.685847 0.000000 0.000000 1.245653 -0.655607 0.000000 0.421462 0.000000 0.000000 1.245653 0.000000 1.245653 0.000000 -0.655607 0.000000 -0.655607 -0.655607 -1.685847 0.000000 0.000000 0.000000 -2.107309 0.000000 0.421462 0.000000 0.000000 -2.107309 0.000000 0.000000 -0.491705 0.000000 0.000000 2.107309 0.000000 -2.107309 0.000000 -1.685847 0.000000 0.000000 0.000000 -1.451701 0.000000 -2.107309 0.000000 0.000000 -2.861257 -1.685847 -1.451701 -1.685847 0.000000 0.000000 0.000000 0.000000 0.000000 0.000000 0.000000 0.000000 0.000000 0.000000 -0.655607 -1.685847 0.000000 0.000000 0.000000 0.000000 0.000000 0.000000 0.000000 0.000000 0.000000 0.000000 -1.685847 -2.107309 0.000000 0.000000 0.000000 0.000000 0.000000 0.000000 0.000000 0.000000 0.000000 0.000000 0.000000 0.000000 0.000000
